{"learner":{"attributes":{"best_iteration":"226","best_score":"0.0379997621153089"},"feature_names":["Temperature(Kelvin)","Pressure (Mpa)","CaCl2 Concentration (ppm)","NaCl Concentration (ppm)","KCl Concentration (ppm)","MgCl2 Concentration (ppm)"],"feature_types":["float","float","float","float","float","float"],"gradient_booster":{"model":{"gbtree_model_param":{"num_parallel_tree":"1","num_trees":"247"},"iteration_indptr":[0,1,2,3,4,5,6,7,8,9,10,11,12,13,14,15,16,17,18,19,20,21,22,23,24,25,26,27,28,29,30,31,32,33,34,35,36,37,38,39,40,41,42,43,44,45,46,47,48,49,50,51,52,53,54,55,56,57,58,59,60,61,62,63,64,65,66,67,68,69,70,71,72,73,74,75,76,77,78,79,80,81,82,83,84,85,86,87,88,89,90,91,92,93,94,95,96,97,98,99,100,101,102,103,104,105,106,107,108,109,110,111,112,113,114,115,116,117,118,119,120,121,122,123,124,125,126,127,128,129,130,131,132,133,134,135,136,137,138,139,140,141,142,143,144,145,146,147,148,149,150,151,152,153,154,155,156,157,158,159,160,161,162,163,164,165,166,167,168,169,170,171,172,173,174,175,176,177,178,179,180,181,182,183,184,185,186,187,188,189,190,191,192,193,194,195,196,197,198,199,200,201,202,203,204,205,206,207,208,209,210,211,212,213,214,215,216,217,218,219,220,221,222,223,224,225,226,227,228,229,230,231,232,233,234,235,236,237,238,239,240,241,242,243,244,245,246,247],"tree_info":[0,0,0,0,0,0,0,0,0,0,0,0,0,0,0,0,0,0,0,0,0,0,0,0,0,0,0,0,0,0,0,0,0,0,0,0,0,0,0,0,0,0,0,0,0,0,0,0,0,0,0,0,0,0,0,0,0,0,0,0,0,0,0,0,0,0,0,0,0,0,0,0,0,0,0,0,0,0,0,0,0,0,0,0,0,0,0,0,0,0,0,0,0,0,0,0,0,0,0,0,0,0,0,0,0,0,0,0,0,0,0,0,0,0,0,0,0,0,0,0,0,0,0,0,0,0,0,0,0,0,0,0,0,0,0,0,0,0,0,0,0,0,0,0,0,0,0,0,0,0,0,0,0,0,0,0,0,0,0,0,0,0,0,0,0,0,0,0,0,0,0,0,0,0,0,0,0,0,0,0,0,0,0,0,0,0,0,0,0,0,0,0,0,0,0,0,0,0,0,0,0,0,0,0,0,0,0,0,0,0,0,0,0,0,0,0,0,0,0,0,0,0,0,0,0,0,0,0,0,0,0,0,0,0,0,0,0,0,0,0,0,0,0,0,0,0,0],"trees":[{"base_weights":[-2.341611E-10,-1.5717939E-1,6.814321E-2,-2.2888483E-1,-7.3021814E-2,1.1947082E-1,-1.5464517E-1,-3.2217234E-2,-1.9476597E-1,6.375587E-2,-1.3930005E-1,2.7294022E-1,8.240059E-2,-9.8136224E-2,-2.0902072E-1,-8.440371E-2,-2.3138419E-2,2.692389E-2,1.7549032E-2,-9.73099E-2,-1.8784425E-1,1.1892658E-2,3.537291E-2,2.6189735E-2,1.254958E-1,-1.18052356E-1,-2.2224123E-3,-2.2480352E-2,-1.4556916E-2,-1.3647965E-2,-5.3090504E-3,2.983747E-5,6.9494876E-3,-8.5023E-3,-1.8049276E-2,-1.5072635E-2,-2.1949852E-2,6.2381197E-3,-4.092635E-3,1.4120742E-2,-8.961718E-3,-1.6747607E-2,-9.618488E-3],"categories":[],"categories_nodes":[],"categories_segments":[],"categories_sizes":[],"default_left":[0,0,0,0,0,0,0,0,0,0,0,0,0,0,0,0,0,0,0,0,0,0,0,0,0,0,0,0,0,0,0,0,0,0,0,0,0,0,0,0,0,0,0],"id":0,"left_children":[1,3,5,7,9,11,13,-1,15,17,19,21,23,25,27,29,-1,31,-1,33,35,-1,-1,37,39,41,-1,-1,-1,-1,-1,-1,-1,-1,-1,-1,-1,-1,-1,-1,-1,-1,-1],"loss_changes":[7.5082073E0,1.2626123E0,5.6102853E0,3.0009794E-1,9.063542E-1,2.2417898E0,2.621765E-1,0E0,3.2801962E-1,1.3108334E-1,1.1829233E-1,9.1601133E-1,7.7673197E-1,6.8434566E-2,1.3341904E-2,3.025952E-2,0E0,2.9449593E-2,0E0,2.3492187E-2,2.1640062E-3,0E0,0E0,3.4504616E-1,6.2777305E-1,2.3879826E-2,0E0,0E0,0E0,0E0,0E0,0E0,0E0,0E0,0E0,0E0,0E0,0E0,0E0,0E0,0E0,0E0,0E0],"parents":[2147483647,0,0,1,1,2,2,3,3,4,4,5,5,6,6,8,8,9,9,10,10,11,11,12,12,13,13,14,14,15,15,17,17,19,19,20,20,23,23,24,24,25,25],"right_children":[2,4,6,8,10,12,14,-1,16,18,20,22,24,26,28,30,-1,32,-1,34,36,-1,-1,38,40,42,-1,-1,-1,-1,-1,-1,-1,-1,-1,-1,-1,-1,-1,-1,-1,-1,-1],"split_conditions":[6.839694E-2,3.8957495E-2,2.1205E-1,7.791499E-3,6.579499E-1,6.579499E-1,5.0875E-1,-3.2217234E-2,6.579499E-1,6.576189E-1,7.572548E-1,6.576189E-1,1.5571707E-1,4.4393593E-1,3.9443055E-1,1.94508E-2,-2.3138419E-2,5.4427575E-2,1.7549032E-2,1.6686356E-1,8.23458E-1,1.1892658E-2,3.537291E-2,7.3518705E-1,6E-1,1.13530055E-1,-2.2224123E-3,-2.2480352E-2,-1.4556916E-2,-1.3647965E-2,-5.3090504E-3,2.983747E-5,6.9494876E-3,-8.5023E-3,-1.8049276E-2,-1.5072635E-2,-2.1949852E-2,6.2381197E-3,-4.092635E-3,1.4120742E-2,-8.961718E-3,-1.6747607E-2,-9.618488E-3],"split_indices":[1,1,2,1,0,0,2,0,0,0,0,0,1,1,1,1,0,1,0,2,0,0,0,0,5,1,0,0,0,0,0,0,0,0,0,0,0,0,0,0,0,0,0],"split_type":[0,0,0,0,0,0,0,0,0,0,0,0,0,0,0,0,0,0,0,0,0,0,0,0,0,0,0,0,0,0,0,0,0,0,0,0,0,0,0,0,0,0,0],"sum_hessian":[6.99E2,2.11E2,4.88E2,1.13E2,9.8E1,3.97E2,9.1E1,2.8E1,8.5E1,3.2E1,6.6E1,7.6E1,3.21E2,4.6E1,4.5E1,2.2E1,6.3E1,2.5E1,7E0,3.7E1,2.9E1,2.7E1,4.9E1,1.4E2,1.81E2,3.6E1,1E1,3.4E1,1.1E1,7E0,1.5E1,1.6E1,9E0,3.4E1,3E0,1.6E1,1.3E1,9.1E1,4.9E1,1.69E2,1.2E1,9E0,2.7E1],"tree_param":{"num_deleted":"0","num_feature":"6","num_nodes":"43","size_leaf_vector":"1"}},{"base_weights":[-1.7773223E-4,-1.4199616E-1,6.1306283E-2,-2.0664822E-1,-6.611403E-2,1.0766085E-1,-1.3989398E-1,-2.8080398E-2,-1.7162195E-1,5.8123566E-2,-1.263189E-1,2.4626005E-1,7.418322E-2,-8.893087E-2,-1.889238E-1,-6.63772E-2,-2.0559725E-1,2.449994E-2,1.6013492E-2,-8.827763E-2,-1.702939E-1,1.0745867E-2,3.1906363E-2,-1.7703552E-3,1.005678E-1,-1.0695972E-1,-2.0203742E-3,-2.0296548E-2,-1.3222532E-2,-1.0047829E-2,-4.6038213E-3,-1.7139932E-2,-2.3205986E-2,5.3776527E-4,7.5635053E-3,-7.6763625E-3,-1.669558E-2,-1.3654034E-2,-1.9911652E-2,3.4937398E-3,-5.415942E-3,1.138219E-2,-1.0494806E-2,-1.698158E-3,-1.1439951E-2],"categories":[],"categories_nodes":[],"categories_segments":[],"categories_sizes":[],"default_left":[0,0,0,0,0,0,0,0,0,0,0,0,0,0,0,0,0,0,0,0,0,0,0,0,0,0,0,0,0,0,0,0,0,0,0,0,0,0,0,0,0,0,0,0,0],"id":1,"left_children":[1,3,5,7,9,11,13,-1,15,17,19,21,23,25,27,29,31,33,-1,35,37,-1,-1,39,41,43,-1,-1,-1,-1,-1,-1,-1,-1,-1,-1,-1,-1,-1,-1,-1,-1,-1,-1,-1],"loss_changes":[6.112402E0,1.0263953E0,4.5757446E0,2.4791145E-1,7.4783325E-1,1.8284407E0,2.1308029E-1,0E0,2.7241087E-1,1.0926641E-1,9.704876E-2,7.4381685E-1,6.454673E-1,5.6075394E-2,9.7852945E-3,9.939365E-3,1.4523029E-2,2.5016591E-2,0E0,2.1608114E-2,1.9985437E-3,0E0,0E0,1.6343129E-1,6.629634E-1,2.2825807E-2,0E0,0E0,0E0,0E0,0E0,0E0,0E0,0E0,0E0,0E0,0E0,0E0,0E0,0E0,0E0,0E0,0E0,0E0,0E0],"parents":[2147483647,0,0,1,1,2,2,3,3,4,4,5,5,6,6,8,8,9,9,10,10,11,11,12,12,13,13,14,14,15,15,16,16,17,17,19,19,20,20,23,23,24,24,25,25],"right_children":[2,4,6,8,10,12,14,-1,16,18,20,22,24,26,28,30,32,34,-1,36,38,-1,-1,40,42,44,-1,-1,-1,-1,-1,-1,-1,-1,-1,-1,-1,-1,-1,-1,-1,-1,-1,-1,-1],"split_conditions":[6.839694E-2,3.8957495E-2,2.1205E-1,1.5131318E-2,6.579499E-1,6.579499E-1,5.0875E-1,-2.8080398E-2,6.579499E-1,6.576189E-1,7.572548E-1,6.576189E-1,1.13936566E-1,4.4393593E-1,3.9443055E-1,2.3194956E-2,7.599029E-1,5.4879256E-2,1.6013492E-2,1.6686356E-1,8.23458E-1,1.0745867E-2,3.1906363E-2,7.3518705E-1,6E-1,2.4405E-1,-2.0203742E-3,-2.0296548E-2,-1.3222532E-2,-1.0047829E-2,-4.6038213E-3,-1.7139932E-2,-2.3205986E-2,5.3776527E-4,7.5635053E-3,-7.6763625E-3,-1.669558E-2,-1.3654034E-2,-1.9911652E-2,3.4937398E-3,-5.415942E-3,1.138219E-2,-1.0494806E-2,-1.698158E-3,-1.1439951E-2],"split_indices":[1,1,2,1,0,0,2,0,0,0,0,0,1,1,1,1,0,1,0,2,0,0,0,0,5,2,0,0,0,0,0,0,0,0,0,0,0,0,0,0,0,0,0,0,0],"split_type":[0,0,0,0,0,0,0,0,0,0,0,0,0,0,0,0,0,0,0,0,0,0,0,0,0,0,0,0,0,0,0,0,0,0,0,0,0,0,0,0,0,0,0,0,0],"sum_hessian":[6.99E2,2.11E2,4.88E2,1.13E2,9.8E1,3.97E2,9.1E1,3.4E1,7.9E1,3.2E1,6.6E1,7.6E1,3.21E2,4.6E1,4.5E1,2E1,5.9E1,2.5E1,7E0,3.7E1,2.9E1,2.7E1,4.9E1,8.3E1,2.38E2,3.6E1,1E1,3.4E1,1.1E1,6E0,1.4E1,2.9E1,3E1,1.9E1,6E0,3.4E1,3E0,1.6E1,1.3E1,4.9E1,3.4E1,2.24E2,1.4E1,3E0,3.3E1],"tree_param":{"num_deleted":"0","num_feature":"6","num_nodes":"45","size_leaf_vector":"1"}},{"base_weights":[-3.3704442E-4,-1.2834795E-1,5.516122E-2,-1.8671213E-1,-5.9844274E-2,9.699933E-2,-1.2643369E-1,-2.6395395E-2,-1.5849441E-1,5.3041965E-2,-1.1455176E-1,2.2218797E-1,6.676168E-2,-7.0568085E-2,-1.6273294E-1,-6.8922274E-2,-1.8820791E-1,2.2361543E-2,1.461231E-2,-8.009123E-2,-1.5438338E-1,9.70966E-3,2.8779536E-2,1.938681E-2,1.03097364E-1,-1.2260712E-2,-4.7603894E-2,-1.884838E-2,-1.3499111E-1,-1.1123768E-2,-4.345693E-3,-1.6032644E-2,-2.110792E-2,-2.2837678E-4,5.61764E-3,-6.930658E-3,-1.5443412E-2,-1.236895E-2,-1.8062713E-2,4.9153864E-3,-3.5772305E-3,1.1585451E-2,-7.1657323E-3,-6.282621E-3,-1.8367025E-3,-8.1305355E-3,-1.4247604E-2],"categories":[],"categories_nodes":[],"categories_segments":[],"categories_sizes":[],"default_left":[0,0,0,0,0,0,0,0,0,0,0,0,0,0,0,0,0,0,0,0,0,0,0,0,0,0,0,0,0,0,0,0,0,0,0,0,0,0,0,0,0,0,0,0,0,0,0],"id":2,"left_children":[1,3,5,7,9,11,13,-1,15,17,19,21,23,25,27,29,31,33,-1,35,37,-1,-1,39,41,-1,43,-1,45,-1,-1,-1,-1,-1,-1,-1,-1,-1,-1,-1,-1,-1,-1,-1,-1,-1,-1],"loss_changes":[4.980148E0,8.364365E-1,3.7274845E0,2.066381E-1,6.174725E-1,1.4917598E0,1.7508125E-1,0E0,2.1591759E-1,9.097282E-2,7.960063E-2,6.039889E-1,5.522915E-1,3.9574727E-2,1.3846993E-2,1.9950211E-2,6.970167E-3,2.1796115E-2,0E0,1.9763649E-2,1.8240213E-3,0E0,0E0,2.3326968E-1,4.14047E-1,0E0,1.1307552E-2,0E0,4.709959E-4,0E0,0E0,0E0,0E0,0E0,0E0,0E0,0E0,0E0,0E0,0E0,0E0,0E0,0E0,0E0,0E0,0E0,0E0],"parents":[2147483647,0,0,1,1,2,2,3,3,4,4,5,5,6,6,8,8,9,9,10,10,11,11,12,12,13,13,14,14,15,15,16,16,17,17,19,19,20,20,23,23,24,24,26,26,28,28],"right_children":[2,4,6,8,10,12,14,-1,16,18,20,22,24,26,28,30,32,34,-1,36,38,-1,-1,40,42,-1,44,-1,46,-1,-1,-1,-1,-1,-1,-1,-1,-1,-1,-1,-1,-1,-1,-1,-1,-1,-1],"split_conditions":[6.839694E-2,3.8957495E-2,2.1205E-1,7.791499E-3,6.579499E-1,6.579499E-1,4.2948332E-1,-2.6395395E-2,6.579499E-1,6.576189E-1,7.572548E-1,6.576189E-1,1.5571707E-1,1.627746E-1,1.9336385E-1,1.94508E-2,7.599029E-1,5.216917E-2,1.461231E-2,1.6686356E-1,8.23458E-1,9.70966E-3,2.8779536E-2,7.3518705E-1,6E-1,-1.2260712E-2,3.384221E-1,-1.884838E-2,5.0875E-1,-1.1123768E-2,-4.345693E-3,-1.6032644E-2,-2.110792E-2,-2.2837678E-4,5.61764E-3,-6.930658E-3,-1.5443412E-2,-1.236895E-2,-1.8062713E-2,4.9153864E-3,-3.5772305E-3,1.1585451E-2,-7.1657323E-3,-6.282621E-3,-1.8367025E-3,-8.1305355E-3,-1.4247604E-2],"split_indices":[1,1,2,1,0,0,2,0,0,0,0,0,1,1,1,1,0,1,0,2,0,0,0,0,5,0,1,0,2,0,0,0,0,0,0,0,0,0,0,0,0,0,0,0,0,0,0],"split_type":[0,0,0,0,0,0,0,0,0,0,0,0,0,0,0,0,0,0,0,0,0,0,0,0,0,0,0,0,0,0,0,0,0,0,0,0,0,0,0,0,0,0,0,0,0,0,0],"sum_hessian":[6.99E2,2.11E2,4.88E2,1.13E2,9.8E1,3.97E2,9.1E1,2.8E1,8.5E1,3.2E1,6.6E1,7.6E1,3.21E2,3.7E1,5.4E1,2.2E1,6.3E1,2.5E1,7E0,3.7E1,2.9E1,2.7E1,4.9E1,1.4E2,1.81E2,1E1,2.7E1,2.5E1,2.9E1,7E0,1.5E1,3.2E1,3.1E1,1.5E1,1E1,3.4E1,3E0,1.6E1,1.3E1,9.1E1,4.9E1,1.69E2,1.2E1,1.7E1,1E1,5E0,2.4E1],"tree_param":{"num_deleted":"0","num_feature":"6","num_nodes":"47","size_leaf_vector":"1"}},{"base_weights":[-4.8786713E-4,-1.1604057E-1,4.9609598E-2,-1.6873395E-1,-5.4191206E-2,8.741058E-2,-1.1445995E-1,-2.2979662E-2,-1.3990986E-1,4.834387E-2,-1.03884734E-1,2.0046903E-1,6.0103398E-2,-7.261934E-2,-1.5472187E-1,-5.468459E-2,-1.6740689E-1,2.0332664E-2,1.3333732E-2,-7.267091E-2,-1.3995942E-1,8.7733716E-2,2.5959143E-2,6.61596E-2,-1.8587243E-2,-1.2909633E-2,-5.5845942E-2,-1.7435988E-2,-1.2047449E-2,-8.329949E-3,-3.7685332E-3,-1.3933251E-2,-1.8917544E-2,3.9145388E-4,6.4336928E-3,-6.2573957E-3,-1.42851565E-2,-1.1204813E-2,-1.638546E-2,1.0293799E-2,6.7694145E-3,-3.4995377E-3,8.227967E-3,-6.9231275E-3,-1.6697282E-3],"categories":[],"categories_nodes":[],"categories_segments":[],"categories_sizes":[],"default_left":[0,0,0,0,0,0,0,0,0,0,0,0,0,0,0,0,0,0,0,0,0,0,0,0,0,0,0,0,0,0,0,0,0,0,0,0,0,0,0,0,0,0,0,0,0],"id":3,"left_children":[1,3,5,7,9,11,13,-1,15,17,19,21,23,25,27,29,31,33,-1,35,37,39,-1,41,-1,-1,43,-1,-1,-1,-1,-1,-1,-1,-1,-1,-1,-1,-1,-1,-1,-1,-1,-1,-1],"loss_changes":[4.0579853E0,6.8177485E-1,3.0427778E0,1.684978E-1,5.0945985E-1,1.2166996E0,1.4374578E-1,0E0,1.7832065E-1,7.585428E-2,6.527293E-2,4.9044418E-1,4.9197388E-1,3.7314117E-2,9.931564E-3,7.0759133E-3,1.0310054E-2,1.8532306E-2,0E0,1.7988428E-2,1.6487837E-3,1.5629679E-3,0E0,5.1652646E-1,0E0,0E0,1.875671E-2,0E0,0E0,0E0,0E0,0E0,0E0,0E0,0E0,0E0,0E0,0E0,0E0,0E0,0E0,0E0,0E0,0E0,0E0],"parents":[2147483647,0,0,1,1,2,2,3,3,4,4,5,5,6,6,8,8,9,9,10,10,11,11,12,12,13,13,14,14,15,15,16,16,17,17,19,19,20,20,21,21,23,23,26,26],"right_children":[2,4,6,8,10,12,14,-1,16,18,20,22,24,26,28,30,32,34,-1,36,38,40,-1,42,-1,-1,44,-1,-1,-1,-1,-1,-1,-1,-1,-1,-1,-1,-1,-1,-1,-1,-1,-1,-1],"split_conditions":[6.839694E-2,3.8957495E-2,2.1205E-1,1.5131318E-2,6.579499E-1,6.579499E-1,5.0875E-1,-2.2979662E-2,6.579499E-1,6.576189E-1,7.572548E-1,6.576189E-1,1E0,1.13530055E-1,2.4370709E-1,2.3194956E-2,7.599029E-1,5.4879256E-2,1.3333732E-2,1.6686356E-1,8.23458E-1,5.55E-2,2.5959143E-2,9.067499E-2,-1.8587243E-2,-1.2909633E-2,4.4393593E-1,-1.7435988E-2,-1.2047449E-2,-8.329949E-3,-3.7685332E-3,-1.3933251E-2,-1.8917544E-2,3.9145388E-4,6.4336928E-3,-6.2573957E-3,-1.42851565E-2,-1.1204813E-2,-1.638546E-2,1.0293799E-2,6.7694145E-3,-3.4995377E-3,8.227967E-3,-6.9231275E-3,-1.6697282E-3],"split_indices":[1,1,2,1,0,0,2,0,0,0,0,0,5,1,1,1,0,1,0,2,0,2,0,1,0,0,1,0,0,0,0,0,0,0,0,0,0,0,0,0,0,0,0,0,0],"split_type":[0,0,0,0,0,0,0,0,0,0,0,0,0,0,0,0,0,0,0,0,0,0,0,0,0,0,0,0,0,0,0,0,0,0,0,0,0,0,0,0,0,0,0,0,0],"sum_hessian":[6.99E2,2.11E2,4.88E2,1.13E2,9.8E1,3.97E2,9.1E1,3.4E1,7.9E1,3.2E1,6.6E1,7.6E1,3.21E2,4.6E1,4.5E1,2E1,5.9E1,2.5E1,7E0,3.7E1,2.9E1,2.7E1,4.9E1,3.14E2,7E0,9E0,3.7E1,2.6E1,1.9E1,6E0,1.4E1,2.9E1,3E1,1.9E1,6E0,3.4E1,3E0,1.6E1,1.3E1,1.3E1,1.4E1,4.3E1,2.71E2,2.7E1,1E1],"tree_param":{"num_deleted":"0","num_feature":"6","num_nodes":"45","size_leaf_vector":"1"}},{"base_weights":[-6.072628E-4,-1.04888886E-1,4.460401E-2,-1.5988556E-1,-5.6208547E-2,7.80958E-2,-1.0679837E-1,-2.1628149E-2,-1.3459869E-1,2.311971E-2,-1.0827944E-1,1.8098086E-1,5.347966E-2,-6.977468E-2,-1.3989063E-1,-6.4134434E-2,-1.5731987E-2,1.0616202E-1,2.8433804E-3,-9.036578E-2,-1.5401447E-2,7.9569735E-2,2.3415146E-2,2.6235167E-2,9.980371E-2,-9.421154E-2,-2.9243011E-2,-1.5756965E-2,-1.0902942E-2,-8.252573E-3,-2.8530695E-3,1.29213305E-2,4.5044585E-3,-1.3924568E-3,4.033432E-3,-1.3249925E-2,-7.717926E-3,9.337946E-3,6.1376016E-3,3.758777E-3,-7.556575E-3,1.1201072E-2,-1.1325371E-2,-3.5441422E-3,-1.0008108E-2,-4.3706703E-3,-1.3301385E-3],"categories":[],"categories_nodes":[],"categories_segments":[],"categories_sizes":[],"default_left":[0,0,0,0,0,0,0,0,0,0,0,0,0,0,0,0,0,0,0,0,0,0,0,0,0,0,0,0,0,0,0,0,0,0,0,0,0,0,0,0,0,0,0,0,0,0,0],"id":4,"left_children":[1,3,5,7,9,11,13,-1,15,17,19,21,23,25,27,29,-1,31,33,35,-1,37,-1,39,41,43,45,-1,-1,-1,-1,-1,-1,-1,-1,-1,-1,-1,-1,-1,-1,-1,-1,-1,-1,-1,-1],"loss_changes":[3.304972E0,5.5859137E-1,2.4879308E0,1.1207032E-1,4.7340238E-1,1.005907E0,9.928179E-2,0E0,1.03583455E-1,7.715263E-2,4.261279E-2,3.9655924E-1,4.07556E-1,4.0825516E-2,7.917643E-3,1.0086656E-2,0E0,6.859161E-3,2.4450189E-2,1.8664688E-2,0E0,1.3037473E-3,0E0,2.4091561E-1,3.247807E-1,5.7667196E-3,3.5689883E-3,0E0,0E0,0E0,0E0,0E0,0E0,0E0,0E0,0E0,0E0,0E0,0E0,0E0,0E0,0E0,0E0,0E0,0E0,0E0,0E0],"parents":[2147483647,0,0,1,1,2,2,3,3,4,4,5,5,6,6,8,8,9,9,10,10,11,11,12,12,13,13,14,14,15,15,17,17,18,18,19,19,21,21,23,23,24,24,25,25,26,26],"right_children":[2,4,6,8,10,12,14,-1,16,18,20,22,24,26,28,30,-1,32,34,36,-1,38,-1,40,42,44,46,-1,-1,-1,-1,-1,-1,-1,-1,-1,-1,-1,-1,-1,-1,-1,-1,-1,-1,-1,-1],"split_conditions":[6.839694E-2,3.1165998E-2,2.4405E-1,7.791499E-3,6.832395E-1,6.579499E-1,5.0875E-1,-2.1628149E-2,6.579499E-1,2.6352426E-2,8.23458E-1,6.576189E-1,1.7705901E-1,2.26631E-1,2.4370709E-1,6.576189E-1,-1.5731987E-2,1.2267619E-2,5.216917E-2,4.5281034E-2,-1.5401447E-2,5.55E-2,2.3415146E-2,8.23458E-1,4E-1,7.2415316E-1,5.354691E-1,-1.5756965E-2,-1.0902942E-2,-8.252573E-3,-2.8530695E-3,1.29213305E-2,4.5044585E-3,-1.3924568E-3,4.033432E-3,-1.3249925E-2,-7.717926E-3,9.337946E-3,6.1376016E-3,3.758777E-3,-7.556575E-3,1.1201072E-2,-1.1325371E-2,-3.5441422E-3,-1.0008108E-2,-4.3706703E-3,-1.3301385E-3],"split_indices":[1,1,2,1,0,0,2,0,0,2,0,0,1,1,1,0,0,5,1,1,0,2,0,0,5,0,1,0,0,0,0,0,0,0,0,0,0,0,0,0,0,0,0,0,0,0,0],"split_type":[0,0,0,0,0,0,0,0,0,0,0,0,0,0,0,0,0,0,0,0,0,0,0,0,0,0,0,0,0,0,0,0,0,0,0,0,0,0,0,0,0,0,0,0,0,0,0],"sum_hessian":[6.99E2,2.11E2,4.88E2,9.8E1,1.13E2,4E2,8.8E1,2.8E1,7E1,4.5E1,6.8E1,7.6E1,3.24E2,4.3E1,4.5E1,1.8E1,5.2E1,8E0,3.7E1,5.1E1,1.7E1,2.7E1,4.9E1,2.05E2,1.19E2,2.6E1,1.7E1,2.6E1,1.9E1,1.1E1,7E0,5E0,3E0,2.6E1,1.1E1,1E1,4.1E1,1.3E1,1.4E1,1.85E2,2E1,1.13E2,6E0,3E0,2.3E1,8E0,9E0],"tree_param":{"num_deleted":"0","num_feature":"6","num_nodes":"47","size_leaf_vector":"1"}},{"base_weights":[-6.547018E-4,-9.409425E-2,4.0406317E-2,-1.4438654E-1,-5.0361205E-2,7.087303E-2,-9.663441E-2,-1.9539913E-2,-1.2151682E-1,3.4961365E-2,-8.919338E-2,1.6338785E-1,4.8598994E-2,-5.569051E-2,-1.2093264E-1,-5.830551E-2,-1.418847E-1,1.312746E-2,1.1246835E-2,-6.761157E-2,-1.2905355E-2,7.216547E-2,2.1120463E-1,5.3837888E-2,-1.6441215E-2,-8.040732E-2,-2.131384E-2,-1.4050369E-2,-9.9939965E-3,-7.4960883E-3,-2.6034263E-3,-1.1836724E-2,-1.572658E-2,2.6117452E-5,5.536509E-3,-5.846474E-3,-1.4555755E-2,8.470852E-3,5.564758E-3,1.5923971E-2,2.269899E-2,-3.4723755E-3,6.716789E-3,-1.0515361E-2,-6.2290793E-3,-3.053242E-3,-1.0751344E-3],"categories":[],"categories_nodes":[],"categories_segments":[],"categories_sizes":[],"default_left":[0,0,0,0,0,0,0,0,0,0,0,0,0,0,0,0,0,0,0,0,0,0,0,0,0,0,0,0,0,0,0,0,0,0,0,0,0,0,0,0,0,0,0,0,0,0,0],"id":5,"left_children":[1,3,5,7,9,11,13,-1,15,17,19,21,23,25,27,29,31,33,-1,35,-1,37,39,41,-1,43,45,-1,-1,-1,-1,-1,-1,-1,-1,-1,-1,-1,-1,-1,-1,-1,-1,-1,-1,-1,-1],"loss_changes":[2.6895082E0,4.6340764E-1,2.0401616E0,9.175372E-2,3.8745663E-1,8.1427026E-1,8.180809E-2,0E0,8.3138466E-2,6.1137937E-2,6.0094833E-2,3.2062936E-1,3.6930096E-1,2.802506E-2,8.554757E-3,8.260757E-3,5.5623055E-4,1.6288783E-2,0E0,2.9989779E-2,0E0,1.0873526E-3,4.868269E-3,3.7537885E-1,0E0,2.4162382E-3,1.229675E-3,0E0,0E0,0E0,0E0,0E0,0E0,0E0,0E0,0E0,0E0,0E0,0E0,0E0,0E0,0E0,0E0,0E0,0E0,0E0,0E0],"parents":[2147483647,0,0,1,1,2,2,3,3,4,4,5,5,6,6,8,8,9,9,10,10,11,11,12,12,13,13,14,14,15,15,16,16,17,17,19,19,21,21,22,22,23,23,25,25,26,26],"right_children":[2,4,6,8,10,12,14,-1,16,18,20,22,24,26,28,30,32,34,-1,36,-1,38,40,42,-1,44,46,-1,-1,-1,-1,-1,-1,-1,-1,-1,-1,-1,-1,-1,-1,-1,-1,-1,-1,-1,-1],"split_conditions":[6.859794E-2,3.1165998E-2,2.4405E-1,7.791499E-3,6.579499E-1,6.579499E-1,4.2948332E-1,-1.9539913E-2,6.579499E-1,6.576189E-1,8.124241E-1,6.576189E-1,1E0,1.9462243E-1,1.9336385E-1,6.576189E-1,3.1913333E-2,5.4879256E-2,1.1246835E-2,4E-1,-1.2905355E-2,5.55E-2,9.417552E-2,9.067499E-2,-1.6441215E-2,1.12920284E-1,6.006865E-1,-1.4050369E-2,-9.9939965E-3,-7.4960883E-3,-2.6034263E-3,-1.1836724E-2,-1.572658E-2,2.6117452E-5,5.536509E-3,-5.846474E-3,-1.4555755E-2,8.470852E-3,5.564758E-3,1.5923971E-2,2.269899E-2,-3.4723755E-3,6.716789E-3,-1.0515361E-2,-6.2290793E-3,-3.053242E-3,-1.0751344E-3],"split_indices":[1,1,2,1,0,0,2,0,0,0,0,0,5,1,1,0,2,1,0,5,0,2,1,1,0,1,1,0,0,0,0,0,0,0,0,0,0,0,0,0,0,0,0,0,0,0,0],"split_type":[0,0,0,0,0,0,0,0,0,0,0,0,0,0,0,0,0,0,0,0,0,0,0,0,0,0,0,0,0,0,0,0,0,0,0,0,0,0,0,0,0,0,0,0,0,0,0],"sum_hessian":[6.99E2,2.13E2,4.86E2,9.8E1,1.15E2,3.98E2,8.8E1,2.8E1,7E1,3.6E1,7.9E1,7.6E1,3.22E2,3.4E1,5.4E1,1.8E1,5.2E1,2.9E1,7E0,5.3E1,2.6E1,2.7E1,4.9E1,3.15E2,7E0,1.9E1,1.5E1,2.5E1,2.9E1,1.1E1,7E0,2.4E1,2.8E1,2.3E1,6E0,4.9E1,4E0,1.3E1,1.4E1,1.4E1,3.5E1,4.1E1,2.74E2,6E0,1.3E1,7E0,8E0],"tree_param":{"num_deleted":"0","num_feature":"6","num_nodes":"47","size_leaf_vector":"1"}},{"base_weights":[-7.023112E-4,-8.5610114E-2,3.6109872E-2,-1.2471167E-1,-3.971934E-2,6.4036146E-2,-8.5094124E-2,-1.6601199E-1,-1.01022005E-1,2.5905654E-2,-8.4649935E-2,1.4773293E-1,4.3822825E-2,-5.415832E-2,-1.1485258E-1,-7.1172575E-3,-1.7457267E-2,-4.2086527E-2,-1.2316198E-1,8.938409E-2,7.808335E-3,-7.0888005E-2,-1.5322869E-2,6.545019E-2,1.9085662E-1,7.3897247E-3,7.180769E-2,-9.859245E-3,-4.1039906E-2,-1.2460212E-2,-7.684534E-3,-2.4598537E-3,-6.061226E-3,-1.020101E-2,-1.391598E-2,1.09073175E-2,3.7504435E-3,-7.022359E-4,3.4347249E-3,-5.967899E-3,-1.4500911E-2,7.684272E-3,5.045382E-3,1.4437732E-2,2.0492142E-2,3.0858226E-3,-3.8723375E-3,8.126267E-3,-5.7358085E-3,-5.0842618E-3,-1.2356653E-3],"categories":[],"categories_nodes":[],"categories_segments":[],"categories_sizes":[],"default_left":[0,0,0,0,0,0,0,0,0,0,0,0,0,0,0,0,0,0,0,0,0,0,0,0,0,0,0,0,0,0,0,0,0,0,0,0,0,0,0,0,0,0,0,0,0,0,0,0,0,0,0],"id":6,"left_children":[1,3,5,7,9,11,13,15,17,19,21,23,25,27,29,-1,-1,31,33,35,37,39,-1,41,43,45,47,-1,49,-1,-1,-1,-1,-1,-1,-1,-1,-1,-1,-1,-1,-1,-1,-1,-1,-1,-1,-1,-1,-1,-1],"loss_changes":[2.1910405E0,3.754593E-1,1.6606047E0,9.476566E-2,2.941014E-1,6.668582E-1,7.847518E-2,2.0051003E-2,9.2678845E-2,4.6402432E-2,4.4820726E-2,2.6073027E-1,3.2777256E-1,2.3350313E-2,7.4703693E-3,0E0,0E0,5.6365356E-3,4.0770173E-3,5.1024333E-3,1.3229685E-2,3.371802E-2,0E0,9.066984E-4,3.0999184E-3,1.537859E-1,2.2693044E-1,0E0,1.0056354E-2,0E0,0E0,0E0,0E0,0E0,0E0,0E0,0E0,0E0,0E0,0E0,0E0,0E0,0E0,0E0,0E0,0E0,0E0,0E0,0E0,0E0,0E0],"parents":[2147483647,0,0,1,1,2,2,3,3,4,4,5,5,6,6,7,7,8,8,9,9,10,10,11,11,12,12,13,13,14,14,17,17,18,18,19,19,20,20,21,21,23,23,24,24,25,25,26,26,28,28],"right_children":[2,4,6,8,10,12,14,16,18,20,22,24,26,28,30,-1,-1,32,34,36,38,40,-1,42,44,46,48,-1,50,-1,-1,-1,-1,-1,-1,-1,-1,-1,-1,-1,-1,-1,-1,-1,-1,-1,-1,-1,-1,-1,-1],"split_conditions":[6.839694E-2,3.8957495E-2,2.1205E-1,1.7163884E-2,6.832395E-1,6.579499E-1,5.0875E-1,6.576189E-1,6.825113E-1,2.6352426E-2,2.1205E-1,6.576189E-1,1.5571707E-1,1.13530055E-1,3.9443055E-1,-7.1172575E-3,-1.7457267E-2,5.55E-2,7.6063114E-1,1.2267619E-2,5.216917E-2,1E-1,-1.5322869E-2,5.55E-2,9.417552E-2,7.362904E-1,6E-1,-9.859245E-3,4.4393593E-1,-1.2460212E-2,-7.684534E-3,-2.4598537E-3,-6.061226E-3,-1.020101E-2,-1.391598E-2,1.09073175E-2,3.7504435E-3,-7.022359E-4,3.4347249E-3,-5.967899E-3,-1.4500911E-2,7.684272E-3,5.045382E-3,1.4437732E-2,2.0492142E-2,3.0858226E-3,-3.8723375E-3,8.126267E-3,-5.7358085E-3,-5.0842618E-3,-1.2356653E-3],"split_indices":[1,1,2,1,0,0,2,0,0,2,2,0,1,1,1,0,0,2,0,5,1,5,0,2,1,0,5,0,1,0,0,0,0,0,0,0,0,0,0,0,0,0,0,0,0,0,0,0,0,0,0],"split_type":[0,0,0,0,0,0,0,0,0,0,0,0,0,0,0,0,0,0,0,0,0,0,0,0,0,0,0,0,0,0,0,0,0,0,0,0,0,0,0,0,0,0,0,0,0,0,0,0,0,0,0],"sum_hessian":[6.99E2,2.11E2,4.88E2,1.13E2,9.8E1,3.97E2,9.1E1,3.9E1,7.4E1,4E1,5.8E1,7.6E1,3.21E2,4.6E1,4.5E1,4E0,3.5E1,2.1E1,5.3E1,8E0,3.2E1,5E1,8E0,2.7E1,4.9E1,1.4E2,1.81E2,9E0,3.7E1,3.4E1,1.1E1,1.2E1,9E0,2.6E1,2.7E1,5E0,3E0,2.1E1,1.1E1,4.5E1,5E0,1.3E1,1.4E1,1.4E1,3.5E1,9.3E1,4.7E1,1.69E2,1.2E1,2.7E1,1E1],"tree_param":{"num_deleted":"0","num_feature":"6","num_nodes":"51","size_leaf_vector":"1"}},{"base_weights":[-7.21613E-4,-7.6930396E-2,3.2767914E-2,-1.18194275E-1,-4.1050617E-2,7.516986E-2,-3.6254425E-2,-1.5967773E-2,-9.9585615E-2,3.0059846E-2,-7.342607E-2,9.456579E-2,2.9944612E-3,3.1706244E-3,-7.925892E-2,-5.325137E-2,-1.1798097E-1,1.1774428E-2,9.4872685E-3,-5.0758895E-2,-1.0111933E-1,6.2303763E-2,1.2795945E-1,-2.7075117E-2,5.5491455E-2,-1.6501775E-2,9.152027E-2,-5.1795516E-2,-1.03805244E-1,-2.2311367E-3,-6.933771E-3,-9.825873E-3,-1.3114219E-2,8.1268765E-5,4.767548E-3,-9.229845E-3,-3.8160123E-3,-8.264801E-3,-1.2292287E-2,9.795774E-3,2.8982402E-3,1.3876716E-2,1.2179726E-3,-1.8259407E-3,-1.0625953E-2,8.002508E-3,-8.718295E-3,4.756224E-4,-4.068204E-3,4.4213114E-3,1.1148944E-2,-7.0276796E-3,-2.1196066E-3,-1.1249791E-2,-6.980119E-3],"categories":[],"categories_nodes":[],"categories_segments":[],"categories_sizes":[],"default_left":[0,0,0,0,0,0,0,0,0,0,0,0,0,0,0,0,0,0,0,0,0,0,0,0,0,0,0,0,0,0,0,0,0,0,0,0,0,0,0,0,0,0,0,0,0,0,0,0,0,0,0,0,0,0,0],"id":7,"left_children":[1,3,5,7,9,11,13,-1,15,17,19,21,23,25,27,29,31,33,-1,35,37,39,41,43,45,47,49,51,53,-1,-1,-1,-1,-1,-1,-1,-1,-1,-1,-1,-1,-1,-1,-1,-1,-1,-1,-1,-1,-1,-1,-1,-1,-1,-1],"loss_changes":[1.7890582E0,3.1198335E-1,1.428019E0,6.0521603E-2,2.6926628E-1,4.224893E-1,3.1560585E-1,0E0,5.4233134E-2,4.273273E-2,4.508552E-2,2.4843645E-1,1.04109004E-1,1.718391E-1,5.4620504E-2,9.402629E-3,9.256601E-5,1.1767395E-2,0E0,2.055186E-2,3.936559E-3,1.4328974E-1,1.4346206E-1,2.7378572E-2,9.0984516E-2,4.182944E-2,1.2075022E-2,2.3393162E-2,5.7444572E-3,0E0,0E0,0E0,0E0,0E0,0E0,0E0,0E0,0E0,0E0,0E0,0E0,0E0,0E0,0E0,0E0,0E0,0E0,0E0,0E0,0E0,0E0,0E0,0E0,0E0,0E0],"parents":[2147483647,0,0,1,1,2,2,3,3,4,4,5,5,6,6,8,8,9,9,10,10,11,11,12,12,13,13,14,14,15,15,16,16,17,17,19,19,20,20,21,21,22,22,23,23,24,24,25,25,26,26,27,27,28,28],"right_children":[2,4,6,8,10,12,14,-1,16,18,20,22,24,26,28,30,32,34,-1,36,38,40,42,44,46,48,50,52,54,-1,-1,-1,-1,-1,-1,-1,-1,-1,-1,-1,-1,-1,-1,-1,-1,-1,-1,-1,-1,-1,-1,-1,-1,-1,-1],"split_conditions":[6.859794E-2,3.1165998E-2,6.891E-2,7.791499E-3,6.579499E-1,8.124241E-1,2.4405E-1,-1.5967773E-2,6.825113E-1,6.576189E-1,7.599029E-1,1.5442978E-1,1.7642665E-1,4.2898417E-1,5.0875E-1,3.1913333E-2,3.1913333E-2,5.4879256E-2,9.4872685E-3,4.087714E-2,8.258634E-1,6.825113E-1,2E-1,9E-1,4E-1,7.2415316E-1,5.7894737E-1,2.26631E-1,3.9443055E-1,-2.2311367E-3,-6.933771E-3,-9.825873E-3,-1.3114219E-2,8.1268765E-5,4.767548E-3,-9.229845E-3,-3.8160123E-3,-8.264801E-3,-1.2292287E-2,9.795774E-3,2.8982402E-3,1.3876716E-2,1.2179726E-3,-1.8259407E-3,-1.0625953E-2,8.002508E-3,-8.718295E-3,4.756224E-4,-4.068204E-3,4.4213114E-3,1.1148944E-2,-7.0276796E-3,-2.1196066E-3,-1.1249791E-2,-6.980119E-3],"split_indices":[1,1,2,1,0,0,2,0,0,0,0,1,1,1,2,2,2,1,0,1,0,0,5,5,5,0,1,1,1,0,0,0,0,0,0,0,0,0,0,0,0,0,0,0,0,0,0,0,0,0,0,0,0,0,0],"split_type":[0,0,0,0,0,0,0,0,0,0,0,0,0,0,0,0,0,0,0,0,0,0,0,0,0,0,0,0,0,0,0,0,0,0,0,0,0,0,0,0,0,0,0,0,0,0,0,0,0,0,0,0,0,0,0],"sum_hessian":[6.99E2,2.13E2,4.86E2,9.8E1,1.15E2,3.01E2,1.85E2,2.8E1,7E1,3.6E1,7.9E1,2.37E2,6.4E1,9.7E1,8.8E1,2.1E1,4.9E1,2.9E1,7E0,4.5E1,3.4E1,1.22E2,1.15E2,4.1E1,2.3E1,8E1,1.7E1,4.3E1,4.5E1,8E0,1.3E1,2.3E1,2.6E1,2.3E1,6E0,9E0,3.6E1,2.1E1,1.3E1,5.8E1,6.4E1,1.05E2,1E1,3.8E1,3E0,2E1,3E0,4.3E1,3.7E1,6E0,1.1E1,2.6E1,1.7E1,3.4E1,1.1E1],"tree_param":{"num_deleted":"0","num_feature":"6","num_nodes":"55","size_leaf_vector":"1"}},{"base_weights":[-7.4676547E-4,-5.489374E-2,3.791256E-2,9.067708E-3,-8.120191E-2,8.412629E-2,-1.5797626E-2,-5.308572E-2,5.9378453E-2,-1.1502276E-1,-5.6213345E-2,1.23920105E-1,2.9467361E-2,1.5597653E-2,-6.414502E-2,-1.080897E-1,-1.7959898E-2,3.6373425E-2,1.0311517E-2,-1.407207E-2,-9.751268E-2,-3.7716135E-2,-1.13593586E-1,1.341394E-1,3.9584055E-3,4.7097385E-2,-8.400412E-2,5.1190476E-3,9.822668E-3,-3.425952E-2,-8.330736E-2,-1.220405E-2,-5.578E-3,-2.8245754E-3,-6.292513E-4,8.286495E-4,5.004023E-3,-4.30558E-3,-9.982643E-3,-1.7830564E-3,-6.602866E-3,-7.7110766E-3,-1.2615532E-2,1.5773576E-2,8.655264E-3,-9.437963E-3,5.263263E-3,1.4692339E-3,8.24493E-3,-3.181658E-3,-1.3958682E-2,1.1863181E-3,-3.5687021E-3,-5.1285606E-3,-1.5092219E-3,-7.14264E-3,-9.716068E-3],"categories":[],"categories_nodes":[],"categories_segments":[],"categories_sizes":[],"default_left":[0,0,0,0,0,0,0,0,0,0,0,0,0,0,0,0,0,0,0,0,0,0,0,0,0,0,0,0,0,0,0,0,0,0,0,0,0,0,0,0,0,0,0,0,0,0,0,0,0,0,0,0,0,0,0,0,0],"id":8,"left_children":[1,3,5,7,9,11,13,15,17,19,21,23,25,27,29,31,33,35,-1,-1,37,39,41,43,45,47,49,51,-1,53,55,-1,-1,-1,-1,-1,-1,-1,-1,-1,-1,-1,-1,-1,-1,-1,-1,-1,-1,-1,-1,-1,-1,-1,-1,-1,-1],"loss_changes":[1.4673809E0,4.9208724E-1,1.0165278E0,2.720729E-1,1.6847706E-1,4.7486746E-1,2.8939772E-1,7.340905E-2,4.4545233E-2,2.5425553E-2,1.2414202E-1,1.551615E-1,1.9200385E-1,9.9934265E-2,4.009664E-2,4.139021E-3,2.8224895E-3,1.2252677E-2,0E0,0E0,2.6319027E-3,5.1182672E-2,3.5623908E-3,1.177237E-1,5.761925E-2,9.272623E-2,3.3268243E-2,2.9044325E-2,0E0,9.342652E-3,4.6676397E-4,0E0,0E0,0E0,0E0,0E0,0E0,0E0,0E0,0E0,0E0,0E0,0E0,0E0,0E0,0E0,0E0,0E0,0E0,0E0,0E0,0E0,0E0,0E0,0E0,0E0,0E0],"parents":[2147483647,0,0,1,1,2,2,3,3,4,4,5,5,6,6,7,7,8,8,9,9,10,10,11,11,12,12,13,13,14,14,15,15,16,16,17,17,20,20,21,21,22,22,23,23,24,24,25,25,26,26,27,27,29,29,30,30],"right_children":[2,4,6,8,10,12,14,16,18,20,22,24,26,28,30,32,34,36,-1,-1,38,40,42,44,46,48,50,52,-1,54,56,-1,-1,-1,-1,-1,-1,-1,-1,-1,-1,-1,-1,-1,-1,-1,-1,-1,-1,-1,-1,-1,-1,-1,-1,-1,-1],"split_conditions":[9.067499E-2,6.579499E-1,5.5559393E-2,4.437767E-2,4.087714E-2,7.362904E-1,2.4405E-1,1.7807528E-2,6.576189E-1,2.2696977E-2,1.6871966E-1,2E-1,4E-1,5.354691E-1,4.2948332E-1,1.1404949E-2,2.8604118E-2,5.4879256E-2,1.0311517E-2,-1.407207E-2,6.825113E-1,7.572548E-1,3.3333334E-1,2.1499085E-1,6.841002E-1,1.7162472E-1,1E0,9.991927E-1,9.822668E-3,1.9462243E-1,6.504667E-1,-1.220405E-2,-5.578E-3,-2.8245754E-3,-6.292513E-4,8.286495E-4,5.004023E-3,-4.30558E-3,-9.982643E-3,-1.7830564E-3,-6.602866E-3,-7.7110766E-3,-1.2615532E-2,1.5773576E-2,8.655264E-3,-9.437963E-3,5.263263E-3,1.4692339E-3,8.24493E-3,-3.181658E-3,-1.3958682E-2,1.1863181E-3,-3.5687021E-3,-5.1285606E-3,-1.5092219E-3,-7.14264E-3,-9.716068E-3],"split_indices":[1,0,2,1,1,0,2,1,0,1,2,5,5,1,2,1,1,1,0,0,0,0,2,3,0,1,5,4,0,1,2,0,0,0,0,0,0,0,0,0,0,0,0,0,0,0,0,0,0,0,0,0,0,0,0,0,0],"split_type":[0,0,0,0,0,0,0,0,0,0,0,0,0,0,0,0,0,0,0,0,0,0,0,0,0,0,0,0,0,0,0,0,0,0,0,0,0,0,0,0,0,0,0,0,0,0,0,0,0,0,0,0,0,0,0,0,0],"sum_hessian":[6.99E2,2.91E2,4.08E2,8.5E1,2.06E2,2.19E2,1.89E2,3.8E1,4.7E1,8.6E1,1.2E2,1.26E2,9.3E1,1.15E2,7.4E1,1.4E1,2.4E1,3.2E1,1.5E1,3.2E1,5.4E1,9.2E1,2.8E1,1.16E2,1E1,8.1E1,1.2E1,1.03E2,1.2E1,3E1,4.4E1,1E1,4E0,1.2E1,1.2E1,1.1E1,2.1E1,3E0,5.1E1,5.5E1,3.7E1,9E0,1.9E1,7.6E1,4E1,3E0,7E0,4.3E1,3.8E1,7E0,5E0,8.9E1,1.4E1,1.5E1,1.5E1,2.7E1,1.7E1],"tree_param":{"num_deleted":"0","num_feature":"6","num_nodes":"57","size_leaf_vector":"1"}},{"base_weights":[-7.65507E-4,-6.316811E-2,2.6657332E-2,-1.42656015E-2,-8.3021335E-2,6.852835E-2,-2.0426923E-2,-9.5377445E-2,1.3068879E-2,-1.0384646E-1,-5.431213E-2,1.0333127E-1,1.8448224E-2,7.453021E-3,-6.468002E-2,-5.868144E-3,-1.1739862E-2,-1.493773E-2,3.9432466E-2,-1.2707504E-2,-8.80212E-2,-4.2928904E-2,-1.2163601E-2,1.1036155E-1,3.183041E-3,2.687929E-2,-1.2795459E-2,-2.2292207E-3,7.8777105E-2,-4.2163126E-2,-8.481182E-2,-2.3687815E-3,-5.7116704E-4,8.3508035E-3,2.1118706E-3,-7.3852465E-3,-1.0206956E-2,-2.3096087E-3,-6.8184384E-3,7.046708E-3,1.2998355E-2,-8.730116E-3,4.8027267E-3,-3.3223496E-3,4.787792E-3,1.5237968E-3,-3.1913177E-3,3.8670872E-3,9.226547E-3,-5.7281675E-3,-1.7142913E-3,-1.0281589E-2,-6.9565787E-3],"categories":[],"categories_nodes":[],"categories_segments":[],"categories_sizes":[],"default_left":[0,0,0,0,0,0,0,0,0,0,0,0,0,0,0,0,0,0,0,0,0,0,0,0,0,0,0,0,0,0,0,0,0,0,0,0,0,0,0,0,0,0,0,0,0,0,0,0,0,0,0,0,0],"id":9,"left_children":[1,3,5,7,9,11,13,15,17,19,21,23,25,27,29,-1,-1,31,33,-1,35,37,-1,39,41,43,-1,45,47,49,51,-1,-1,-1,-1,-1,-1,-1,-1,-1,-1,-1,-1,-1,-1,-1,-1,-1,-1,-1,-1,-1,-1],"loss_changes":[1.1995635E0,2.0658231E-1,9.615035E-1,1.4092693E-1,8.523655E-2,4.4777095E-1,2.8425002E-1,6.040305E-3,3.6030054E-2,2.0795763E-2,4.5358226E-2,1.0666728E-1,1.3551283E-1,9.823755E-2,3.6768317E-2,0E0,0E0,1.8021953E-3,1.8416159E-2,0E0,3.4095645E-3,2.7476683E-2,0E0,1.0199928E-1,4.8827473E-2,1.3032244E-1,0E0,6.581669E-2,5.6284517E-3,1.5661873E-2,5.4740906E-3,0E0,0E0,0E0,0E0,0E0,0E0,0E0,0E0,0E0,0E0,0E0,0E0,0E0,0E0,0E0,0E0,0E0,0E0,0E0,0E0,0E0,0E0],"parents":[2147483647,0,0,1,1,2,2,3,3,4,4,5,5,6,6,7,7,8,8,9,9,10,10,11,11,12,12,13,13,14,14,17,17,18,18,20,20,21,21,23,23,24,24,25,25,27,27,28,28,29,29,30,30],"right_children":[2,4,6,8,10,12,14,16,18,20,22,24,26,28,30,-1,-1,32,34,-1,36,38,-1,40,42,44,-1,46,48,50,52,-1,-1,-1,-1,-1,-1,-1,-1,-1,-1,-1,-1,-1,-1,-1,-1,-1,-1,-1,-1,-1,-1],"split_conditions":[6.859794E-2,6.579499E-1,5.5559393E-2,1.94508E-2,4.087714E-2,7.362904E-1,2.4405E-1,6.576189E-1,4.437767E-2,2.2696977E-2,2.1205E-1,2E-1,1E0,4.4393593E-1,5.0875E-1,-5.868144E-3,-1.1739862E-2,2.8604118E-2,1.6666668E-2,-1.2707504E-2,7.6063114E-1,7.572548E-1,-1.2163601E-2,1.1458021E-1,6.841002E-1,1.13936566E-1,-1.2795459E-2,7.2415316E-1,5.7894737E-1,2.26631E-1,1.7276888E-1,-2.3687815E-3,-5.7116704E-4,8.3508035E-3,2.1118706E-3,-7.3852465E-3,-1.0206956E-2,-2.3096087E-3,-6.8184384E-3,7.046708E-3,1.2998355E-2,-8.730116E-3,4.8027267E-3,-3.3223496E-3,4.787792E-3,1.5237968E-3,-3.1913177E-3,3.8670872E-3,9.226547E-3,-5.7281675E-3,-1.7142913E-3,-1.0281589E-2,-6.9565787E-3],"split_indices":[1,0,2,1,1,0,2,0,1,1,2,5,5,1,2,0,0,1,2,0,0,0,0,1,0,1,0,0,1,1,1,0,0,0,0,0,0,0,0,0,0,0,0,0,0,0,0,0,0,0,0,0,0],"split_type":[0,0,0,0,0,0,0,0,0,0,0,0,0,0,0,0,0,0,0,0,0,0,0,0,0,0,0,0,0,0,0,0,0,0,0,0,0,0,0,0,0,0,0,0,0,0,0,0,0,0,0,0,0],"sum_hessian":[6.99E2,2.13E2,4.86E2,6.2E1,1.51E2,2.57E2,2.29E2,1.5E1,4.7E1,8.6E1,6.5E1,1.51E2,1.06E2,1.41E2,8.8E1,7E0,8E0,2.3E1,2.4E1,3.2E1,5.4E1,5.7E1,8E0,1.41E2,1E1,1.01E2,5E0,1.25E2,1.6E1,4.3E1,4.5E1,1.1E1,1.2E1,6E0,1.8E1,3E1,2.4E1,3.3E1,2.4E1,4.8E1,9.3E1,3E0,7E0,2.6E1,7.5E1,7.9E1,4.6E1,5E0,1.1E1,2.6E1,1.7E1,1.8E1,2.7E1],"tree_param":{"num_deleted":"0","num_feature":"6","num_nodes":"53","size_leaf_vector":"1"}},{"base_weights":[-7.8915956E-4,-4.521366E-2,3.0929038E-2,7.59445E-3,-6.693484E-2,6.836168E-2,-1.2576803E-2,-4.4016365E-2,4.937002E-2,-9.381009E-2,-4.7058124E-2,8.3211206E-2,-3.6435504E-2,1.1199249E-2,-5.6392528E-2,-8.985768E-2,-1.4750918E-2,2.9793372E-2,8.666123E-2,-1.1475262E-2,-7.9538934E-2,-3.134678E-2,-9.367098E-2,1.09216996E-1,4.2615253E-2,-1.8777322E-3,-1.2259522E-2,1.2331591E-3,6.981994E-2,-6.62761E-2,-2.074638E-2,-5.5028084E-3,-1.0696318E-2,-2.3182707E-3,-5.184444E-4,5.5910036E-4,4.164042E-3,1.0091755E-2,5.9790215E-3,-6.6705453E-3,-9.22709E-3,-1.8961683E-3,-6.564782E-3,-6.618341E-3,-1.0410559E-2,1.3018772E-2,6.716912E-3,-2.4449346E-3,5.661977E-3,5.319349E-3,-2.2412082E-3,2.0719732E-3,-1.4971505E-3,3.58665E-3,8.380778E-3,-7.947361E-3,-5.6269253E-3,-5.017921E-4,-4.025184E-3],"categories":[],"categories_nodes":[],"categories_segments":[],"categories_sizes":[],"default_left":[0,0,0,0,0,0,0,0,0,0,0,0,0,0,0,0,0,0,0,0,0,0,0,0,0,0,0,0,0,0,0,0,0,0,0,0,0,0,0,0,0,0,0,0,0,0,0,0,0,0,0,0,0,0,0,0,0,0,0],"id":10,"left_children":[1,3,5,7,9,11,13,15,17,19,21,23,25,27,29,31,33,35,37,-1,39,41,43,45,47,49,-1,51,53,55,57,-1,-1,-1,-1,-1,-1,-1,-1,-1,-1,-1,-1,-1,-1,-1,-1,-1,-1,-1,-1,-1,-1,-1,-1,-1,-1,-1,-1],"loss_changes":[9.87744E-1,3.354482E-1,6.669319E-1,1.8759522E-1,1.06163085E-1,3.453933E-1,1.9856688E-1,5.099561E-2,3.2459833E-2,1.687479E-2,8.567813E-2,1.9910157E-1,8.3139464E-2,7.2357066E-2,2.222988E-2,3.050685E-3,1.8963735E-3,9.229166E-3,9.5427036E-5,0E0,2.8317869E-3,3.78388E-2,1.714617E-3,9.4423056E-2,7.3703274E-2,2.4940062E-2,0E0,3.4097955E-2,5.5429414E-3,2.3954958E-3,4.7066724E-3,0E0,0E0,0E0,0E0,0E0,0E0,0E0,0E0,0E0,0E0,0E0,0E0,0E0,0E0,0E0,0E0,0E0,0E0,0E0,0E0,0E0,0E0,0E0,0E0,0E0,0E0,0E0,0E0],"parents":[2147483647,0,0,1,1,2,2,3,3,4,4,5,5,6,6,7,7,8,8,9,9,10,10,11,11,12,12,13,13,14,14,15,15,16,16,17,17,18,18,20,20,21,21,22,22,23,23,24,24,25,25,27,27,28,28,29,29,30,30],"right_children":[2,4,6,8,10,12,14,16,18,20,22,24,26,28,30,32,34,36,38,-1,40,42,44,46,48,50,-1,52,54,56,58,-1,-1,-1,-1,-1,-1,-1,-1,-1,-1,-1,-1,-1,-1,-1,-1,-1,-1,-1,-1,-1,-1,-1,-1,-1,-1,-1,-1],"split_conditions":[9.067499E-2,6.579499E-1,5.5559393E-2,4.437767E-2,4.087714E-2,2E-1,3.5695E-1,1.7807528E-2,6.576189E-1,2.2696977E-2,1.6686356E-1,7.362904E-1,1E0,4.2898417E-1,5.7894737E-1,6.576189E-1,2.8604118E-2,5.4879256E-2,7.584708E-3,-1.1475262E-2,7.6063114E-1,8.124241E-1,3.3333334E-1,2.1499085E-1,1.13936566E-1,7.1311927E-1,-1.2259522E-2,8.3529815E-2,5.7894737E-1,1.7457476E-1,4.2948332E-1,-5.5028084E-3,-1.0696318E-2,-2.3182707E-3,-5.184444E-4,5.5910036E-4,4.164042E-3,1.0091755E-2,5.9790215E-3,-6.6705453E-3,-9.22709E-3,-1.8961683E-3,-6.564782E-3,-6.618341E-3,-1.0410559E-2,1.3018772E-2,6.716912E-3,-2.4449346E-3,5.661977E-3,5.319349E-3,-2.2412082E-3,2.0719732E-3,-1.4971505E-3,3.58665E-3,8.380778E-3,-7.947361E-3,-5.6269253E-3,-5.017921E-4,-4.025184E-3],"split_indices":[1,0,2,1,1,5,2,1,0,1,2,0,5,1,1,0,1,1,2,0,0,0,2,3,1,0,0,2,1,1,2,0,0,0,0,0,0,0,0,0,0,0,0,0,0,0,0,0,0,0,0,0,0,0,0,0,0,0,0],"split_type":[0,0,0,0,0,0,0,0,0,0,0,0,0,0,0,0,0,0,0,0,0,0,0,0,0,0,0,0,0,0,0,0,0,0,0,0,0,0,0,0,0,0,0,0,0,0,0,0,0,0,0,0,0,0,0,0,0,0,0],"sum_hessian":[6.99E2,2.91E2,4.08E2,8.5E1,2.06E2,2.19E2,1.89E2,3.8E1,4.7E1,8.6E1,1.2E2,1.92E2,2.7E1,1.23E2,6.6E1,1.4E1,2.4E1,3.2E1,1.5E1,3.2E1,5.4E1,9.1E1,2.9E1,1.16E2,7.6E1,2E1,7E0,1.06E2,1.7E1,5.1E1,1.5E1,6E0,8E0,1.2E1,1.2E1,1.1E1,2.1E1,8E0,7E0,3E1,2.4E1,6.8E1,2.3E1,1E1,1.9E1,7.6E1,4E1,1.3E1,6.3E1,5E0,1.5E1,4.8E1,5.8E1,6E0,1.1E1,1.9E1,3.2E1,9E0,6E0],"tree_param":{"num_deleted":"0","num_feature":"6","num_nodes":"59","size_leaf_vector":"1"}},{"base_weights":[-7.715173E-4,-4.0867306E-2,2.7856214E-2,6.8554473E-3,-6.0496725E-2,6.158811E-2,-1.1348382E-2,-4.010283E-2,4.4866223E-2,-8.474371E-2,-4.256297E-2,7.500902E-2,-3.311987E-2,1.01804705E-2,-5.1023446E-2,-8.195185E-2,-1.3389301E-2,2.6957165E-2,7.899952E-2,-1.0362509E-2,-7.187409E-2,-2.8304065E-2,-8.487151E-2,9.0771824E-2,1.9567413E-2,-1.5433928E-3,-1.1186814E-2,-9.183773E-5,5.7810802E-2,-5.9909537E-2,-1.8954681E-2,-5.0311387E-3,-9.745534E-3,-2.1042773E-3,-4.705883E-4,5.078504E-4,3.7665654E-3,9.194708E-3,5.455857E-3,-6.0250084E-3,-8.341289E-3,-1.7092992E-3,-5.9356564E-3,-6.016673E-3,-9.421556E-3,1.1793904E-2,7.4712015E-3,-5.09759E-3,3.6659704E-3,4.8760693E-3,-2.0310963E-3,1.4724691E-3,-2.4783697E-3,4.209066E-3,9.271608E-3,-4.5406567E-3,-6.8269405E-3,-4.566318E-4,-3.6801675E-3],"categories":[],"categories_nodes":[],"categories_segments":[],"categories_sizes":[],"default_left":[0,0,0,0,0,0,0,0,0,0,0,0,0,0,0,0,0,0,0,0,0,0,0,0,0,0,0,0,0,0,0,0,0,0,0,0,0,0,0,0,0,0,0,0,0,0,0,0,0,0,0,0,0,0,0,0,0,0,0],"id":11,"left_children":[1,3,5,7,9,11,13,15,17,19,21,23,25,27,29,31,33,35,37,-1,39,41,43,45,47,49,-1,51,53,55,57,-1,-1,-1,-1,-1,-1,-1,-1,-1,-1,-1,-1,-1,-1,-1,-1,-1,-1,-1,-1,-1,-1,-1,-1,-1,-1,-1,-1],"loss_changes":[8.046344E-1,2.7395156E-1,5.41579E-1,1.5530242E-1,8.64048E-2,2.8211904E-1,1.6280957E-1,4.2502195E-2,2.7212568E-2,1.3692677E-2,7.0593864E-2,1.6688955E-1,6.945194E-2,6.067522E-2,1.7957166E-2,2.454944E-3,1.5624329E-3,7.5402E-3,4.671514E-5,0E0,2.3513734E-3,3.1013556E-2,1.2566447E-3,5.663359E-2,5.4921612E-2,2.081617E-2,0E0,3.8047235E-2,8.169271E-3,3.204748E-3,3.940576E-3,0E0,0E0,0E0,0E0,0E0,0E0,0E0,0E0,0E0,0E0,0E0,0E0,0E0,0E0,0E0,0E0,0E0,0E0,0E0,0E0,0E0,0E0,0E0,0E0,0E0,0E0,0E0,0E0],"parents":[2147483647,0,0,1,1,2,2,3,3,4,4,5,5,6,6,7,7,8,8,9,9,10,10,11,11,12,12,13,13,14,14,15,15,16,16,17,17,18,18,20,20,21,21,22,22,23,23,24,24,25,25,27,27,28,28,29,29,30,30],"right_children":[2,4,6,8,10,12,14,16,18,20,22,24,26,28,30,32,34,36,38,-1,40,42,44,46,48,50,-1,52,54,56,58,-1,-1,-1,-1,-1,-1,-1,-1,-1,-1,-1,-1,-1,-1,-1,-1,-1,-1,-1,-1,-1,-1,-1,-1,-1,-1,-1,-1],"split_conditions":[9.067499E-2,6.579499E-1,5.5559393E-2,4.437767E-2,4.087714E-2,2E-1,3.5695E-1,1.7807528E-2,6.576189E-1,2.2696977E-2,1.6686356E-1,8.124241E-1,1E0,3.5926774E-1,5.7894737E-1,6.576189E-1,2.8604118E-2,5.4879256E-2,7.584708E-3,-1.0362509E-2,7.6063114E-1,8.124241E-1,3.3333334E-1,6.825113E-1,1.13936566E-1,7.1311927E-1,-1.1186814E-2,7.2415316E-1,7.208238E-1,5.0875E-1,4.2948332E-1,-5.0311387E-3,-9.745534E-3,-2.1042773E-3,-4.705883E-4,5.078504E-4,3.7665654E-3,9.194708E-3,5.455857E-3,-6.0250084E-3,-8.341289E-3,-1.7092992E-3,-5.9356564E-3,-6.016673E-3,-9.421556E-3,1.1793904E-2,7.4712015E-3,-5.09759E-3,3.6659704E-3,4.8760693E-3,-2.0310963E-3,1.4724691E-3,-2.4783697E-3,4.209066E-3,9.271608E-3,-4.5406567E-3,-6.8269405E-3,-4.566318E-4,-3.6801675E-3],"split_indices":[1,0,2,1,1,5,2,1,0,1,2,0,5,1,1,0,1,1,2,0,0,0,2,0,1,0,0,0,1,2,2,0,0,0,0,0,0,0,0,0,0,0,0,0,0,0,0,0,0,0,0,0,0,0,0,0,0,0,0],"split_type":[0,0,0,0,0,0,0,0,0,0,0,0,0,0,0,0,0,0,0,0,0,0,0,0,0,0,0,0,0,0,0,0,0,0,0,0,0,0,0,0,0,0,0,0,0,0,0,0,0,0,0,0,0,0,0,0,0,0,0],"sum_hessian":[6.99E2,2.91E2,4.08E2,8.5E1,2.06E2,2.19E2,1.89E2,3.8E1,4.7E1,8.6E1,1.2E2,1.92E2,2.7E1,1.23E2,6.6E1,1.4E1,2.4E1,3.2E1,1.5E1,3.2E1,5.4E1,9.1E1,2.9E1,1.49E2,4.3E1,2E1,7E0,1.02E2,2.1E1,5.1E1,1.5E1,6E0,8E0,1.2E1,1.2E1,1.1E1,2.1E1,8E0,7E0,3E1,2.4E1,6.8E1,2.3E1,1E1,1.9E1,5.3E1,9.6E1,8E0,3.5E1,5E0,1.5E1,6.4E1,3.8E1,1.6E1,5E0,2.1E1,3E1,9E0,6E0],"tree_param":{"num_deleted":"0","num_feature":"6","num_nodes":"59","size_leaf_vector":"1"}},{"base_weights":[-7.51192E-4,-4.7113374E-2,1.9623054E-2,-1.0955346E-2,-6.1789967E-2,4.5414306E-2,-2.2358563E-2,-7.249263E-2,9.785319E-3,-7.655358E-2,-4.1392628E-2,5.815391E-2,-1.9309258E-3,-6.5130894E-3,-5.998118E-2,-8.455883E-3,-3.8289167E-3,-1.1044948E-2,2.9390963E-2,-9.35766E-3,-6.494789E-2,-3.2640606E-2,-9.319537E-3,6.111797E-2,-9.219485E-3,-2.2831647E-2,3.472579E-2,-2.0238137E-2,3.3642583E-2,-7.2897814E-2,-4.9161065E-2,-1.5844804E-3,-1.2846557E-4,8.0549335E-3,1.875349E-3,-2.476602E-3,-6.678981E-3,-2.7260005E-3,-9.846374E-3,7.6115266E-3,2.4894073E-3,-9.353553E-4,-5.217866E-3,5.2403007E-3,-6.676105E-3,2.955301E-4,-3.884662E-3,4.9799583E-3,-4.667469E-4,-2.9872374E-3,-7.785801E-3,-2.8730743E-3,-5.178324E-3],"categories":[],"categories_nodes":[],"categories_segments":[],"categories_sizes":[],"default_left":[0,0,0,0,0,0,0,0,0,0,0,0,0,0,0,0,0,0,0,0,0,0,0,0,0,0,0,0,0,0,0,0,0,0,0,0,0,0,0,0,0,0,0,0,0,0,0,0,0,0,0,0,0],"id":12,"left_children":[1,3,5,7,9,11,13,15,17,19,21,23,25,27,29,-1,-1,31,33,-1,35,37,-1,39,-1,41,43,45,47,49,51,-1,-1,-1,-1,-1,-1,-1,-1,-1,-1,-1,-1,-1,-1,-1,-1,-1,-1,-1,-1,-1,-1],"loss_changes":[6.6214067E-1,1.1288786E-1,5.283187E-1,8.1117794E-2,4.2604327E-2,1.8226647E-1,1.104929E-1,3.365606E-3,1.992738E-2,1.1110425E-2,2.688104E-2,1.1169773E-1,5.0592713E-2,7.343115E-2,4.1030347E-3,0E0,0E0,1.103997E-3,1.2094315E-2,0E0,2.4165064E-3,1.7857641E-2,0E0,1.2522817E-1,0E0,1.6124697E-2,4.6554595E-2,4.284268E-2,2.1277603E-2,2.5827363E-3,2.8010458E-4,0E0,0E0,0E0,0E0,0E0,0E0,0E0,0E0,0E0,0E0,0E0,0E0,0E0,0E0,0E0,0E0,0E0,0E0,0E0,0E0,0E0,0E0],"parents":[2147483647,0,0,1,1,2,2,3,3,4,4,5,5,6,6,7,7,8,8,9,9,10,10,11,11,12,12,13,13,14,14,17,17,18,18,20,20,21,21,23,23,25,25,26,26,27,27,28,28,29,29,30,30],"right_children":[2,4,6,8,10,12,14,16,18,20,22,24,26,28,30,-1,-1,32,34,-1,36,38,-1,40,-1,42,44,46,48,50,52,-1,-1,-1,-1,-1,-1,-1,-1,-1,-1,-1,-1,-1,-1,-1,-1,-1,-1,-1,-1,-1,-1],"split_conditions":[6.859794E-2,6.579499E-1,6.891E-2,1.94508E-2,4.087714E-2,8.124241E-1,4.2948332E-1,1.1404949E-2,4.437767E-2,2.2696977E-2,2.1205E-1,1E0,1.7642665E-1,3.453102E-1,1.7276888E-1,-8.455883E-3,-3.8289167E-3,3.206936E-2,1.503275E-3,-9.35766E-3,6.825113E-1,4E-1,-9.319537E-3,4.532699E-1,-9.219485E-3,8.23458E-1,4E-1,7.2415316E-1,2.1205E-1,7.2415316E-1,5.0875E-1,-1.5844804E-3,-1.2846557E-4,8.0549335E-3,1.875349E-3,-2.476602E-3,-6.678981E-3,-2.7260005E-3,-9.846374E-3,7.6115266E-3,2.4894073E-3,-9.353553E-4,-5.217866E-3,5.2403007E-3,-6.676105E-3,2.955301E-4,-3.884662E-3,4.9799583E-3,-4.667469E-4,-2.9872374E-3,-7.785801E-3,-2.8730743E-3,-5.178324E-3],"split_indices":[1,0,2,1,1,0,2,1,1,1,2,5,1,1,1,0,0,1,2,0,0,5,0,3,0,0,5,0,2,0,2,0,0,0,0,0,0,0,0,0,0,0,0,0,0,0,0,0,0,0,0,0,0],"split_type":[0,0,0,0,0,0,0,0,0,0,0,0,0,0,0,0,0,0,0,0,0,0,0,0,0,0,0,0,0,0,0,0,0,0,0,0,0,0,0,0,0,0,0,0,0,0,0,0,0,0,0,0,0],"sum_hessian":[6.99E2,2.13E2,4.86E2,6.2E1,1.51E2,3.01E2,1.85E2,1.5E1,4.7E1,8.6E1,6.5E1,2.37E2,6.4E1,1.31E2,5.4E1,1E1,5E0,2.3E1,2.4E1,3.2E1,5.4E1,5.7E1,8E0,2.33E2,4E0,4.1E1,2.3E1,9.8E1,3.3E1,2.2E1,3.2E1,1.5E1,8E0,3E0,2.1E1,3E0,5.1E1,5.4E1,3E0,1.64E2,6.9E1,2.9E1,1.2E1,2E1,3E0,4.4E1,5.4E1,2.3E1,1E1,3E0,1.9E1,5E0,2.7E1],"tree_param":{"num_deleted":"0","num_feature":"6","num_nodes":"53","size_leaf_vector":"1"}},{"base_weights":[-7.7475654E-4,-3.3982247E-2,2.2935174E-2,5.801194E-3,-5.0346468E-2,5.4563235E-2,-5.5776886E-3,-3.324263E-2,3.7403446E-2,-4.1162103E-2,-7.991214E-2,6.83348E-2,-2.9523032E-2,1.0654279E-2,-4.1834667E-2,-6.808348E-2,-1.1008415E-2,2.2293335E-2,6.623033E-3,-6.2425103E-2,-2.5172358E-2,-9.042691E-3,-6.20871E-2,1.07386634E-1,5.1680397E-2,-3.047486E-3,-9.533095E-3,1.424528E-3,7.421601E-2,-4.9252097E-2,-1.5113356E-2,-4.1395067E-3,-8.127632E-3,-1.746512E-3,-3.7049103E-4,2.8939013E-4,3.1861512E-3,-8.577778E-3,-5.5889213E-3,-1.1770377E-3,-4.426022E-3,-2.5141693E-3,-6.684791E-3,9.071122E-3,1.2530093E-2,1.8068415E-3,6.60414E-3,3.8354367E-3,-1.8382714E-3,1.2842112E-3,-1.336415E-3,1.252909E-2,5.6808786E-3,-7.016773E-3,-4.385453E-3,-3.735289E-4,-2.9208686E-3],"categories":[],"categories_nodes":[],"categories_segments":[],"categories_sizes":[],"default_left":[0,0,0,0,0,0,0,0,0,0,0,0,0,0,0,0,0,0,0,0,0,0,0,0,0,0,0,0,0,0,0,0,0,0,0,0,0,0,0,0,0,0,0,0,0,0,0,0,0,0,0,0,0,0,0,0,0],"id":13,"left_children":[1,3,5,7,9,11,13,15,17,19,21,23,25,27,29,31,33,35,-1,37,39,-1,41,43,45,47,-1,49,51,53,55,-1,-1,-1,-1,-1,-1,-1,-1,-1,-1,-1,-1,-1,-1,-1,-1,-1,-1,-1,-1,-1,-1,-1,-1,-1,-1],"loss_changes":[5.5192256E-1,1.9039139E-1,3.6914325E-1,1.0735645E-1,5.2919805E-2,2.2666943E-1,1.2756649E-1,2.9462207E-2,1.9431219E-2,5.2827E-2,3.3821166E-3,1.0306448E-1,4.84939E-2,8.789312E-2,1.2535267E-2,1.9170046E-3,1.1142078E-3,6.0331635E-3,0E0,5.584866E-3,2.3269847E-2,0E0,2.0130277E-3,3.2715201E-3,5.6248248E-2,1.40381E-2,0E0,2.2459952E-2,9.7747445E-3,2.7932823E-3,2.4569386E-3,0E0,0E0,0E0,0E0,0E0,0E0,0E0,0E0,0E0,0E0,0E0,0E0,0E0,0E0,0E0,0E0,0E0,0E0,0E0,0E0,0E0,0E0,0E0,0E0,0E0,0E0],"parents":[2147483647,0,0,1,1,2,2,3,3,4,4,5,5,6,6,7,7,8,8,9,9,10,10,11,11,12,12,13,13,14,14,15,15,16,16,17,17,19,19,20,20,22,22,23,23,24,24,25,25,27,27,28,28,29,29,30,30],"right_children":[2,4,6,8,10,12,14,16,18,20,22,24,26,28,30,32,34,36,-1,38,40,-1,42,44,46,48,-1,50,52,54,56,-1,-1,-1,-1,-1,-1,-1,-1,-1,-1,-1,-1,-1,-1,-1,-1,-1,-1,-1,-1,-1,-1,-1,-1,-1,-1],"split_conditions":[9.067499E-2,6.579499E-1,3.1913333E-2,4.437767E-2,1.6871966E-1,2E-1,3.5695E-1,1.7807528E-2,6.576189E-1,4.087714E-2,6.0638193E-2,6.825113E-1,1E0,4.5190698E-1,5.7894737E-1,6.576189E-1,2.8604118E-2,5.4879256E-2,6.623033E-3,7.791499E-3,7.572548E-1,-9.042691E-3,7.268013E-1,1.7906179E-1,1.1675957E-1,7.1311927E-1,-9.533095E-3,7.2415316E-1,4.8741418E-1,1.2071178E-1,4.2948332E-1,-4.1395067E-3,-8.127632E-3,-1.746512E-3,-3.7049103E-4,2.8939013E-4,3.1861512E-3,-8.577778E-3,-5.5889213E-3,-1.1770377E-3,-4.426022E-3,-2.5141693E-3,-6.684791E-3,9.071122E-3,1.2530093E-2,1.8068415E-3,6.60414E-3,3.8354367E-3,-1.8382714E-3,1.2842112E-3,-1.336415E-3,1.252909E-2,5.6808786E-3,-7.016773E-3,-4.385453E-3,-3.735289E-4,-2.9208686E-3],"split_indices":[1,0,2,1,2,5,2,1,0,1,1,0,5,1,1,0,1,1,0,1,0,0,0,1,1,0,0,0,1,1,2,0,0,0,0,0,0,0,0,0,0,0,0,0,0,0,0,0,0,0,0,0,0,0,0,0,0],"split_type":[0,0,0,0,0,0,0,0,0,0,0,0,0,0,0,0,0,0,0,0,0,0,0,0,0,0,0,0,0,0,0,0,0,0,0,0,0,0,0,0,0,0,0,0,0,0,0,0,0,0,0,0,0,0,0,0,0],"sum_hessian":[6.99E2,2.91E2,4.08E2,8.5E1,2.06E2,1.93E2,2.15E2,3.8E1,4.7E1,1.59E2,4.7E1,1.66E2,2.7E1,1.49E2,6.6E1,1.4E1,2.4E1,3.2E1,1.5E1,6.7E1,9.2E1,2.7E1,2E1,4.8E1,1.18E2,2E1,7E0,1.31E2,1.8E1,5.1E1,1.5E1,6E0,8E0,1.2E1,1.2E1,1.1E1,2.1E1,1.2E1,5.5E1,5.5E1,3.7E1,3E0,1.7E1,2.8E1,2E1,3.6E1,8.2E1,5E0,1.5E1,7.4E1,5.7E1,3E0,1.5E1,8E0,4.3E1,9E0,6E0],"tree_param":{"num_deleted":"0","num_feature":"6","num_nodes":"57","size_leaf_vector":"1"}},{"base_weights":[-7.2064955E-4,-3.0728873E-2,2.0705076E-2,5.171248E-3,-4.549545E-2,4.2112928E-2,-1.3570137E-2,-3.7859045E-2,2.8899245E-2,-3.7169453E-2,-7.2300956E-2,5.050655E-2,-2.6839871E-2,-3.5755298E-4,-4.6740457E-2,-7.0208022E-3,-1.9111529E-2,4.496115E-2,3.8990695E-3,-5.6390926E-2,-2.2715367E-2,-8.170717E-3,-5.6316435E-2,3.397987E-2,7.682317E-2,-2.6476383E-3,-8.6989505E-3,-1.3752182E-2,2.575397E-2,-3.8445834E-2,-5.704652E-3,-1.140672E-3,-3.0206006E-3,6.934243E-3,3.3410196E-3,-1.0543952E-3,1.5820159E-3,-7.6909587E-3,-5.0142705E-3,-1.0614352E-3,-3.995067E-3,-2.3256065E-3,-6.053449E-3,4.398139E-3,-1.1564557E-3,1.1336751E-2,6.403144E-3,3.515817E-3,-1.6659339E-3,2.9193072E-4,-3.0500495E-3,3.742249E-3,-3.6187444E-4,-5.652511E-3,-3.4015316E-3],"categories":[],"categories_nodes":[],"categories_segments":[],"categories_sizes":[],"default_left":[0,0,0,0,0,0,0,0,0,0,0,0,0,0,0,0,0,0,0,0,0,0,0,0,0,0,0,0,0,0,0,0,0,0,0,0,0,0,0,0,0,0,0,0,0,0,0,0,0,0,0,0,0,0,0],"id":14,"left_children":[1,3,5,7,9,11,13,15,17,19,21,23,25,27,29,-1,31,33,35,37,39,-1,41,43,45,47,-1,49,51,53,-1,-1,-1,-1,-1,-1,-1,-1,-1,-1,-1,-1,-1,-1,-1,-1,-1,-1,-1,-1,-1,-1,-1,-1,-1],"loss_changes":[4.506998E-1,1.5503085E-1,3.006788E-1,8.890205E-2,4.351142E-2,1.4720407E-1,6.922926E-2,1.7458566E-2,2.2311512E-2,4.317166E-2,2.6155114E-3,9.524804E-2,4.051399E-2,4.0226147E-2,1.6536266E-3,0E0,1.4505461E-3,7.258579E-3,4.1268677E-3,4.861474E-3,1.897246E-2,0E0,1.520671E-3,6.428054E-2,3.294289E-2,1.1709907E-2,0E0,2.130971E-2,1.3502132E-2,3.2009557E-4,0E0,0E0,0E0,0E0,0E0,0E0,0E0,0E0,0E0,0E0,0E0,0E0,0E0,0E0,0E0,0E0,0E0,0E0,0E0,0E0,0E0,0E0,0E0,0E0,0E0],"parents":[2147483647,0,0,1,1,2,2,3,3,4,4,5,5,6,6,7,7,8,8,9,9,10,10,11,11,12,12,13,13,14,14,16,16,17,17,18,18,19,19,20,20,22,22,23,23,24,24,25,25,27,27,28,28,29,29],"right_children":[2,4,6,8,10,12,14,16,18,20,22,24,26,28,30,-1,32,34,36,38,40,-1,42,44,46,48,-1,50,52,54,-1,-1,-1,-1,-1,-1,-1,-1,-1,-1,-1,-1,-1,-1,-1,-1,-1,-1,-1,-1,-1,-1,-1,-1,-1],"split_conditions":[9.067499E-2,6.579499E-1,6.891E-2,3.206936E-2,1.6871966E-1,2E-1,4.2948332E-1,1.1404949E-2,5.55E-2,4.087714E-2,6.0638193E-2,1.7842534E-1,1E0,3.272311E-1,6.504667E-1,-7.0208022E-3,5.55E-2,9.179708E-3,4.9022082E-2,1.1404949E-2,7.572548E-1,-8.170717E-3,7.268013E-1,8.124241E-1,6.579499E-1,7.1311927E-1,-8.6989505E-3,7.2415316E-1,2.1205E-1,1.13530055E-1,-5.704652E-3,-1.140672E-3,-3.0206006E-3,6.934243E-3,3.3410196E-3,-1.0543952E-3,1.5820159E-3,-7.6909587E-3,-5.0142705E-3,-1.0614352E-3,-3.995067E-3,-2.3256065E-3,-6.053449E-3,4.398139E-3,-1.1564557E-3,1.1336751E-2,6.403144E-3,3.515817E-3,-1.6659339E-3,2.9193072E-4,-3.0500495E-3,3.742249E-3,-3.6187444E-4,-5.652511E-3,-3.4015316E-3],"split_indices":[1,0,2,1,2,5,2,1,2,1,1,1,5,1,2,0,2,5,1,1,0,0,0,0,0,0,0,0,2,1,0,0,0,0,0,0,0,0,0,0,0,0,0,0,0,0,0,0,0,0,0,0,0,0,0],"split_type":[0,0,0,0,0,0,0,0,0,0,0,0,0,0,0,0,0,0,0,0,0,0,0,0,0,0,0,0,0,0,0,0,0,0,0,0,0,0,0,0,0,0,0,0,0,0,0,0,0,0,0,0,0,0,0],"sum_hessian":[6.99E2,2.91E2,4.08E2,8.5E1,2.06E2,2.51E2,1.57E2,3E1,5.5E1,1.59E2,4.7E1,2.24E2,2.7E1,1.13E2,4.4E1,1E1,2E1,3.3E1,2.2E1,6.7E1,9.2E1,2.7E1,2E1,1.39E2,8.5E1,2E1,7E0,7.5E1,3.8E1,2.7E1,1.7E1,1.3E1,7E0,9E0,2.4E1,1E1,1.2E1,1.3E1,5.4E1,5.5E1,3.7E1,3E0,1.7E1,1.14E2,2.5E1,2E1,6.5E1,5E0,1.5E1,3.8E1,3.7E1,2.7E1,1.1E1,3E0,2.4E1],"tree_param":{"num_deleted":"0","num_feature":"6","num_nodes":"55","size_leaf_vector":"1"}},{"base_weights":[-6.9814955E-4,-2.7774788E-2,1.8634556E-2,4.6497174E-3,-4.111166E-2,4.500414E-2,-5.135509E-3,-3.4433845E-2,2.620223E-2,-3.3563517E-2,-6.541564E-2,5.637136E-2,-2.4400499E-2,7.96635E-3,-3.439138E-2,-5.685757E-2,-1.2622685E-2,5.782245E-2,1.529792E-2,-4.900812E-2,-1.8644933E-2,-7.3828264E-3,-5.1083796E-2,7.496821E-2,2.8871944E-2,-2.294793E-3,-7.937792E-3,-1.2884809E-4,6.378739E-2,-4.0518496E-2,-1.2328792E-2,-3.4652033E-3,-6.7811036E-3,-7.967536E-4,-1.98292E-3,7.0330612E-3,3.526706E-3,7.057481E-5,2.7956082E-3,-5.436447E-3,-2.9513964E-3,-1.5028678E-3,-8.630881E-3,-2.1511859E-3,-5.481735E-3,8.401039E-3,4.321098E-3,-1.5582842E-3,3.667077E-3,1.7378203E-3,-2.567291E-3,4.270796E-4,-2.8230527E-3,1.1109173E-2,4.7974596E-3,-5.176339E-3,-3.3042866E-3,-3.073427E-4,-2.3789487E-3],"categories":[],"categories_nodes":[],"categories_segments":[],"categories_sizes":[],"default_left":[0,0,0,0,0,0,0,0,0,0,0,0,0,0,0,0,0,0,0,0,0,0,0,0,0,0,0,0,0,0,0,0,0,0,0,0,0,0,0,0,0,0,0,0,0,0,0,0,0,0,0,0,0,0,0,0,0,0,0],"id":15,"left_children":[1,3,5,7,9,11,13,15,17,19,21,23,25,27,29,31,33,35,37,39,41,-1,43,45,47,49,-1,51,53,55,57,-1,-1,-1,-1,-1,-1,-1,-1,-1,-1,-1,-1,-1,-1,-1,-1,-1,-1,-1,-1,-1,-1,-1,-1,-1,-1,-1,-1],"loss_changes":[3.6694288E-1,1.2646405E-1,2.5659508E-1,7.334426E-2,3.5778582E-2,1.5442947E-1,8.306813E-2,1.444402E-2,1.8424053E-2,3.5952106E-2,2.0158738E-3,8.3239734E-2,3.3846654E-2,6.779058E-2,8.557528E-3,1.2986213E-3,4.1231606E-4,1.4694147E-3,7.922804E-3,6.540045E-3,1.9012148E-2,0E0,1.139354E-3,2.4798095E-2,2.4493404E-2,1.0104418E-2,0E0,1.6440697E-2,8.882679E-3,2.6608407E-3,1.624051E-3,0E0,0E0,0E0,0E0,0E0,0E0,0E0,0E0,0E0,0E0,0E0,0E0,0E0,0E0,0E0,0E0,0E0,0E0,0E0,0E0,0E0,0E0,0E0,0E0,0E0,0E0,0E0,0E0],"parents":[2147483647,0,0,1,1,2,2,3,3,4,4,5,5,6,6,7,7,8,8,9,9,10,10,11,11,12,12,13,13,14,14,15,15,16,16,17,17,18,18,19,19,20,20,22,22,23,23,24,24,25,25,27,27,28,28,29,29,30,30],"right_children":[2,4,6,8,10,12,14,16,18,20,22,24,26,28,30,32,34,36,38,40,42,-1,44,46,48,50,-1,52,54,56,58,-1,-1,-1,-1,-1,-1,-1,-1,-1,-1,-1,-1,-1,-1,-1,-1,-1,-1,-1,-1,-1,-1,-1,-1,-1,-1,-1,-1],"split_conditions":[9.067499E-2,6.579499E-1,3.1913333E-2,3.206936E-2,1.6871966E-1,2E-1,3.5695E-1,1.7807528E-2,1.6666668E-2,4.5958556E-2,6.0638193E-2,7.3518705E-1,1E0,4.5190698E-1,5.7894737E-1,6.576189E-1,5.55E-2,9.179708E-3,5.4879256E-2,3.1523058E-1,4E-1,-7.3828264E-3,7.268013E-1,2.6352426E-2,9.417552E-2,8.23458E-1,-7.937792E-3,8.273419E-1,4.8741418E-1,1.7276888E-1,4.2948332E-1,-3.4652033E-3,-6.7811036E-3,-7.967536E-4,-1.98292E-3,7.0330612E-3,3.526706E-3,7.057481E-5,2.7956082E-3,-5.436447E-3,-2.9513964E-3,-1.5028678E-3,-8.630881E-3,-2.1511859E-3,-5.481735E-3,8.401039E-3,4.321098E-3,-1.5582842E-3,3.667077E-3,1.7378203E-3,-2.567291E-3,4.270796E-4,-2.8230527E-3,1.1109173E-2,4.7974596E-3,-5.176339E-3,-3.3042866E-3,-3.073427E-4,-2.3789487E-3],"split_indices":[1,0,2,1,2,5,2,1,2,1,1,0,5,1,1,0,2,5,1,4,5,0,0,2,1,0,0,0,1,1,2,0,0,0,0,0,0,0,0,0,0,0,0,0,0,0,0,0,0,0,0,0,0,0,0,0,0,0,0],"split_type":[0,0,0,0,0,0,0,0,0,0,0,0,0,0,0,0,0,0,0,0,0,0,0,0,0,0,0,0,0,0,0,0,0,0,0,0,0,0,0,0,0,0,0,0,0,0,0,0,0,0,0,0,0,0,0,0,0,0,0],"sum_hessian":[6.99E2,2.91E2,4.08E2,8.5E1,2.06E2,1.93E2,2.15E2,3E1,5.5E1,1.59E2,4.7E1,1.66E2,2.7E1,1.49E2,6.6E1,1.4E1,1.6E1,1.3E1,4.2E1,7.7E1,8.2E1,2.7E1,2E1,9.8E1,6.8E1,2E1,7E0,1.31E2,1.8E1,5.1E1,1.5E1,6E0,8E0,1.1E1,5E0,7E0,6E0,2E1,2.2E1,5.9E1,1.8E1,7.9E1,3E0,3E0,1.7E1,7.5E1,2.3E1,1E1,5.8E1,1.1E1,9E0,1.14E2,1.7E1,3E0,1.5E1,1.8E1,3.3E1,9E0,6E0],"tree_param":{"num_deleted":"0","num_feature":"6","num_nodes":"59","size_leaf_vector":"1"}},{"base_weights":[-6.636607E-4,-2.511079E-2,1.6791658E-2,4.1894E-3,-3.716251E-2,4.053498E-2,-4.611101E-3,-3.141065E-2,2.382176E-2,-3.0322922E-2,-5.918691E-2,5.082303E-2,-2.2273572E-2,7.2597954E-3,-3.1118913E-2,-5.8263727E-3,-1.5849005E-2,3.769362E-2,2.2798006E-3,-4.421484E-2,-1.6902529E-2,-6.670911E-3,-4.6338886E-2,6.75999E-2,2.6015304E-2,-2.1048188E-3,-7.2432354E-2,-1.3410368E-4,5.8245845E-2,-1.476179E-2,-3.878769E-2,-9.226456E-4,-2.5457342E-3,6.0924417E-3,2.8202438E-3,-9.649557E-4,1.2198504E-3,-6.0148193E-3,-3.7683547E-3,-1.3544592E-3,-7.983564E-3,-1.9206377E-3,-4.9793953E-3,7.571989E-3,3.9069927E-3,1.1936383E-3,5.0316746E-3,3.0780132E-3,-1.4305124E-3,-8.564242E-3,-3.7811683E-3,3.6166765E-4,-2.9631301E-3,1.0275985E-2,4.347698E-3,-3.5958611E-3,-5.1653467E-4,-3.2934037E-3,-5.066329E-3],"categories":[],"categories_nodes":[],"categories_segments":[],"categories_sizes":[],"default_left":[0,0,0,0,0,0,0,0,0,0,0,0,0,0,0,0,0,0,0,0,0,0,0,0,0,0,0,0,0,0,0,0,0,0,0,0,0,0,0,0,0,0,0,0,0,0,0,0,0,0,0,0,0,0,0,0,0,0,0],"id":16,"left_children":[1,3,5,7,9,11,13,15,17,19,21,23,25,27,29,-1,31,33,35,37,39,-1,41,43,45,47,49,51,53,55,57,-1,-1,-1,-1,-1,-1,-1,-1,-1,-1,-1,-1,-1,-1,-1,-1,-1,-1,-1,-1,-1,-1,-1,-1,-1,-1,-1,-1],"loss_changes":[2.991344E-1,1.0326606E-1,2.0802952E-1,6.085477E-2,2.9387295E-2,1.2649044E-1,6.8194956E-2,1.2030799E-2,1.6648382E-2,2.9082254E-2,1.5477538E-3,6.77461E-2,2.8173463E-2,5.655567E-2,7.831842E-3,0E0,1.1013844E-3,5.7783686E-3,2.8391564E-3,5.850509E-3,1.6458666E-2,0E0,1.0122769E-3,1.9976288E-2,2.3006935E-2,8.865649E-3,4.204437E-4,1.4711317E-2,8.023322E-3,4.4927853E-3,1.4596656E-3,0E0,0E0,0E0,0E0,0E0,0E0,0E0,0E0,0E0,0E0,0E0,0E0,0E0,0E0,0E0,0E0,0E0,0E0,0E0,0E0,0E0,0E0,0E0,0E0,0E0,0E0,0E0,0E0],"parents":[2147483647,0,0,1,1,2,2,3,3,4,4,5,5,6,6,7,7,8,8,9,9,10,10,11,11,12,12,13,13,14,14,16,16,17,17,18,18,19,19,20,20,22,22,23,23,24,24,25,25,26,26,27,27,28,28,29,29,30,30],"right_children":[2,4,6,8,10,12,14,16,18,20,22,24,26,28,30,-1,32,34,36,38,40,-1,42,44,46,48,50,52,54,56,58,-1,-1,-1,-1,-1,-1,-1,-1,-1,-1,-1,-1,-1,-1,-1,-1,-1,-1,-1,-1,-1,-1,-1,-1,-1,-1,-1,-1],"split_conditions":[9.067499E-2,6.579499E-1,3.1913333E-2,3.206936E-2,1.6871966E-1,2E-1,3.5695E-1,1.1404949E-2,5.55E-2,4.5958556E-2,6.0638193E-2,7.3518705E-1,1E0,4.5190698E-1,4.2948332E-1,-5.8263727E-3,5.55E-2,7.584708E-3,4.9022082E-2,2.2696977E-2,4E-1,-6.670911E-3,7.193022E-2,2.6352426E-2,1.792045E-1,7.1311927E-1,1.7642665E-1,9.991927E-1,4.8741418E-1,1.7276888E-1,8.333333E-1,-9.226456E-4,-2.5457342E-3,6.0924417E-3,2.8202438E-3,-9.649557E-4,1.2198504E-3,-6.0148193E-3,-3.7683547E-3,-1.3544592E-3,-7.983564E-3,-1.9206377E-3,-4.9793953E-3,7.571989E-3,3.9069927E-3,1.1936383E-3,5.0316746E-3,3.0780132E-3,-1.4305124E-3,-8.564242E-3,-3.7811683E-3,3.6166765E-4,-2.9631301E-3,1.0275985E-2,4.347698E-3,-3.5958611E-3,-5.1653467E-4,-3.2934037E-3,-5.066329E-3],"split_indices":[1,0,2,1,2,5,2,1,2,1,1,0,5,1,2,0,2,2,1,1,5,0,1,2,1,0,1,4,1,1,2,0,0,0,0,0,0,0,0,0,0,0,0,0,0,0,0,0,0,0,0,0,0,0,0,0,0,0,0],"split_type":[0,0,0,0,0,0,0,0,0,0,0,0,0,0,0,0,0,0,0,0,0,0,0,0,0,0,0,0,0,0,0,0,0,0,0,0,0,0,0,0,0,0,0,0,0,0,0,0,0,0,0,0,0,0,0,0,0,0,0],"sum_hessian":[6.99E2,2.91E2,4.08E2,8.5E1,2.06E2,1.93E2,2.15E2,3E1,5.5E1,1.59E2,4.7E1,1.66E2,2.7E1,1.49E2,6.6E1,1E1,2E1,3.3E1,2.2E1,7.7E1,8.2E1,2.7E1,2E1,9.8E1,6.8E1,2E1,7E0,1.31E2,1.8E1,2.2E1,4.4E1,1.3E1,7E0,8E0,2.5E1,1E1,1.2E1,2E1,5.7E1,7.9E1,3E0,3E0,1.7E1,7.5E1,2.3E1,4.4E1,2.4E1,5E0,1.5E1,4E0,3E0,1.17E2,1.4E1,3E0,1.5E1,6E0,1.6E1,3.2E1,1.2E1],"tree_param":{"num_deleted":"0","num_feature":"6","num_nodes":"59","size_leaf_vector":"1"}},{"base_weights":[-6.3481566E-4,-2.8997501E-2,1.166278E-2,-5.427171E-2,-2.086181E-2,3.0762954E-2,-9.803054E-3,-2.860178E-3,-5.7705524E-3,3.6063653E-3,-3.45422E-2,4.8524745E-2,5.077749E-3,-1.170111E-3,-3.7407197E-2,1.3748103E-2,-9.794613E-3,-3.122986E-2,-8.343878E-3,2.6002873E-2,5.953075E-2,-1.8259518E-2,1.9282976E-2,-4.8809005E-3,3.404208E-2,-2.9056443E-2,-4.7762315E-3,-4.4808356E-4,2.3894834E-3,-1.5319803E-3,7.390874E-4,-1.695477E-3,-4.2811795E-3,4.7833747E-3,5.12175E-5,6.9402503E-3,3.2287985E-3,-1.2209526E-3,-7.1169557E-3,2.8507926E-3,-3.0272037E-3,7.6361577E-4,-1.7649875E-3,4.8571783E-3,-6.9100664E-5,-1.9888654E-3,-3.4021072E-3],"categories":[],"categories_nodes":[],"categories_segments":[],"categories_sizes":[],"default_left":[0,0,0,0,0,0,0,0,0,0,0,0,0,0,0,0,0,0,0,0,0,0,0,0,0,0,0,0,0,0,0,0,0,0,0,0,0,0,0,0,0,0,0,0,0,0,0],"id":17,"left_children":[1,3,5,7,9,11,13,-1,-1,15,17,19,21,23,25,27,29,31,-1,33,35,37,39,41,43,45,-1,-1,-1,-1,-1,-1,-1,-1,-1,-1,-1,-1,-1,-1,-1,-1,-1,-1,-1,-1,-1],"loss_changes":[2.444932E-1,4.245989E-2,2.0079213E-1,2.8449595E-3,5.435151E-2,1.17913336E-1,5.500468E-2,0E0,0E0,8.153301E-3,1.4238276E-2,3.6377043E-2,3.5823792E-2,2.3293864E-2,3.3682138E-3,6.3958494E-3,2.5820062E-3,1.5642107E-2,0E0,2.8912678E-2,2.5190353E-2,1.2255369E-2,3.1491548E-2,2.5867404E-2,8.612806E-3,8.2534924E-4,0E0,0E0,0E0,0E0,0E0,0E0,0E0,0E0,0E0,0E0,0E0,0E0,0E0,0E0,0E0,0E0,0E0,0E0,0E0,0E0,0E0],"parents":[2147483647,0,0,1,1,2,2,3,3,4,4,5,5,6,6,9,9,10,10,11,11,12,12,13,13,14,14,15,15,16,16,17,17,19,19,20,20,21,21,22,22,23,23,24,24,25,25],"right_children":[2,4,6,8,10,12,14,-1,-1,16,18,20,22,24,26,28,30,32,-1,34,36,38,40,42,44,46,-1,-1,-1,-1,-1,-1,-1,-1,-1,-1,-1,-1,-1,-1,-1,-1,-1,-1,-1,-1,-1],"split_conditions":[6.839694E-2,2.2940885E-2,5.5559393E-2,6.576189E-1,6.832395E-1,7.362904E-1,4.2948332E-1,-2.860178E-3,-5.7705524E-3,5.6586772E-2,4E-1,1.1670481E-1,1.5018398E-1,6.5789473E-1,6.504667E-1,3.206936E-2,4.9022082E-2,3.1913333E-2,-8.343878E-3,6.825113E-1,2.1499085E-1,1.1675957E-1,4E-1,7.2415316E-1,2.1205E-1,8.256648E-1,-4.7762315E-3,-4.4808356E-4,2.3894834E-3,-1.5319803E-3,7.390874E-4,-1.695477E-3,-4.2811795E-3,4.7833747E-3,5.12175E-5,6.9402503E-3,3.2287985E-3,-1.2209526E-3,-7.1169557E-3,2.8507926E-3,-3.0272037E-3,7.6361577E-4,-1.7649875E-3,4.8571783E-3,-6.9100664E-5,-1.9888654E-3,-3.4021072E-3],"split_indices":[1,1,2,0,0,0,2,0,0,2,5,1,1,1,2,1,1,2,0,0,3,1,5,0,2,0,0,0,0,0,0,0,0,0,0,0,0,0,0,0,0,0,0,0,0,0,0],"split_type":[0,0,0,0,0,0,0,0,0,0,0,0,0,0,0,0,0,0,0,0,0,0,0,0,0,0,0,0,0,0,0,0,0,0,0,0,0,0,0,0,0,0,0,0,0,0,0],"sum_hessian":[6.99E2,2.11E2,4.88E2,5E1,1.61E2,2.58E2,2.3E2,7E0,4.3E1,5.8E1,1.03E2,1.52E2,1.06E2,1.76E2,5.4E1,3.3E1,2.5E1,9.8E1,5E0,5.1E1,1.01E2,4E1,6.6E1,1.6E2,1.6E1,3.2E1,2.2E1,1.2E1,2.1E1,1.9E1,6E0,4.5E1,5.3E1,2.7E1,2.4E1,7.3E1,2.8E1,3.7E1,3E0,5.6E1,1E1,8.1E1,7.9E1,1.1E1,5E0,1.3E1,1.9E1],"tree_param":{"num_deleted":"0","num_feature":"6","num_nodes":"47","size_leaf_vector":"1"}},{"base_weights":[-6.0232833E-4,-1.7605957E-2,1.6647335E-2,7.832293E-3,-2.7275262E-2,3.535203E-2,-4.312127E-3,-2.0829163E-2,2.6331702E-2,-1.9628393E-2,-4.581718E-2,4.416431E-2,-1.7525457E-2,3.5019654E-3,-2.8818715E-2,-4.328651E-2,-6.521589E-3,5.033546E-2,1.6459076E-2,-3.8981084E-2,-8.892651E-3,-3.782404E-2,-6.0893563E-3,5.681949E-2,2.4689205E-2,-3.3267806E-3,-5.761785E-3,1.4650843E-3,6.5260576E-3,-2.1806E-2,-3.7974916E-2,-2.6574638E-3,-5.147502E-3,-1.136484E-3,-1.1766783E-4,6.3662045E-3,3.1416044E-3,5.801991E-5,2.3099242E-3,-5.363398E-3,-2.7837257E-3,-3.4601727E-4,-3.7302524E-3,-4.638878E-3,-3.2177293E-3,6.881761E-3,2.8529656E-3,1.2935573E-3,4.2507453E-3,9.1181876E-4,-2.9519317E-3,4.3654788E-4,-2.5727355E-3,-1.3166771E-3,-2.384119E-3,-2.1400831E-3,-4.1716206E-3],"categories":[],"categories_nodes":[],"categories_segments":[],"categories_sizes":[],"default_left":[0,0,0,0,0,0,0,0,0,0,0,0,0,0,0,0,0,0,0,0,0,0,0,0,0,0,0,0,0,0,0,0,0,0,0,0,0,0,0,0,0,0,0,0,0,0,0,0,0,0,0,0,0,0,0,0,0],"id":18,"left_children":[1,3,5,7,9,11,13,15,17,19,21,23,25,27,29,31,33,35,37,39,41,43,-1,45,47,49,-1,51,-1,53,55,-1,-1,-1,-1,-1,-1,-1,-1,-1,-1,-1,-1,-1,-1,-1,-1,-1,-1,-1,-1,-1,-1,-1,-1,-1,-1],"loss_changes":[2.056079E-1,8.704112E-2,1.365825E-1,5.251003E-2,3.539832E-2,8.6512715E-2,3.1697888E-2,1.2248799E-2,1.3390332E-2,3.7674442E-2,6.6143125E-3,3.753802E-2,1.5178309E-2,1.5754553E-2,1.7403103E-3,6.8474934E-4,6.3379586E-4,2.2862218E-3,4.6258867E-3,9.120785E-3,1.8236913E-2,9.7384304E-4,0E0,3.028202E-2,1.2853604E-2,7.114433E-3,0E0,9.813175E-3,0E0,1.2565125E-4,9.9375844E-5,0E0,0E0,0E0,0E0,0E0,0E0,0E0,0E0,0E0,0E0,0E0,0E0,0E0,0E0,0E0,0E0,0E0,0E0,0E0,0E0,0E0,0E0,0E0,0E0,0E0,0E0],"parents":[2147483647,0,0,1,1,2,2,3,3,4,4,5,5,6,6,7,7,8,8,9,9,10,10,11,11,12,12,13,13,14,14,15,15,16,16,17,17,18,18,19,19,20,20,21,21,23,23,24,24,25,25,27,27,29,29,30,30],"right_children":[2,4,6,8,10,12,14,16,18,20,22,24,26,28,30,32,34,36,38,40,42,44,-1,46,48,50,-1,52,-1,54,56,-1,-1,-1,-1,-1,-1,-1,-1,-1,-1,-1,-1,-1,-1,-1,-1,-1,-1,-1,-1,-1,-1,-1,-1,-1,-1],"split_conditions":[1.1410595E-1,6.579499E-1,5.5559393E-2,4.437767E-2,8.124241E-1,2E-1,4.2948332E-1,1.7807528E-2,1.5169415E-2,4.087714E-2,8.6980027E-1,7.362904E-1,1E0,7.6086956E-1,6.504667E-1,6.576189E-1,2.8604118E-2,9.179708E-3,5.4879256E-2,1.7163884E-2,1.6686356E-1,4.5958556E-2,-6.0893563E-3,2.1499085E-1,1.792045E-1,2.3238994E-1,-5.761785E-3,9.991927E-1,6.5260576E-3,5.0875E-1,7.268013E-1,-2.6574638E-3,-5.147502E-3,-1.136484E-3,-1.1766783E-4,6.3662045E-3,3.1416044E-3,5.801991E-5,2.3099242E-3,-5.363398E-3,-2.7837257E-3,-3.4601727E-4,-3.7302524E-3,-4.638878E-3,-3.2177293E-3,6.881761E-3,2.8529656E-3,1.2935573E-3,4.2507453E-3,9.1181876E-4,-2.9519317E-3,4.3654788E-4,-2.5727355E-3,-1.3166771E-3,-2.384119E-3,-2.1400831E-3,-4.1716206E-3],"split_indices":[1,0,2,1,0,5,2,1,2,1,0,0,5,1,2,0,1,5,1,1,2,1,0,3,1,1,0,4,0,2,0,0,0,0,0,0,0,0,0,0,0,0,0,0,0,0,0,0,0,0,0,0,0,0,0,0,0],"split_type":[0,0,0,0,0,0,0,0,0,0,0,0,0,0,0,0,0,0,0,0,0,0,0,0,0,0,0,0,0,0,0,0,0,0,0,0,0,0,0,0,0,0,0,0,0,0,0,0,0,0,0,0,0,0,0,0,0],"sum_hessian":[6.99E2,3.52E2,3.47E2,9.7E1,2.55E2,1.83E2,1.64E2,3.8E1,5.9E1,1.82E2,7.3E1,1.57E2,2.6E1,1.25E2,3.9E1,1.4E1,2.4E1,1.6E1,4.3E1,6.4E1,1.18E2,5E1,2.3E1,9.4E1,6.3E1,2E1,6E0,1.22E2,3E0,2.4E1,1.5E1,6E0,8E0,1.2E1,1.2E1,8E0,8E0,1.3E1,3E1,2.6E1,3.8E1,1E2,1.8E1,1.7E1,3.3E1,6.5E1,2.9E1,3.9E1,2.4E1,1.4E1,6E0,1.11E2,1.1E1,6E0,1.8E1,4E0,1.1E1],"tree_param":{"num_deleted":"0","num_feature":"6","num_nodes":"57","size_leaf_vector":"1"}},{"base_weights":[-5.728094E-4,-1.5911518E-2,1.4987929E-2,7.0778076E-3,-2.4649965E-2,3.1857457E-2,-3.9149863E-3,-1.8978536E-2,2.3896467E-2,-1.8834302E-2,-4.5561124E-2,3.9844573E-2,-1.606188E-2,5.644435E-3,-2.0738048E-2,-3.947819E-2,-5.9196013E-3,1.29088685E-2,4.228828E-2,-1.6551537E-2,-8.00611E-3,-3.4794882E-3,-4.985835E-3,5.1240005E-2,2.2306912E-2,-3.091263E-3,-5.2679176E-3,-1.1480928E-3,3.1631727E-2,-1.0409784E-2,-2.8329963E-2,-2.4296816E-3,-4.6899463E-3,-1.0315779E-3,-1.0680694E-4,-3.5063244E-4,1.7258155E-3,4.550785E-3,2.2240186E-3,-3.056981E-3,-6.82493E-4,6.2040105E-3,2.577178E-3,1.1674343E-3,3.8426747E-3,8.267145E-4,-2.69891E-3,9.929406E-4,-1.5110511E-3,2.0496366E-3,5.790997E-3,-1.8347352E-3,-1.7286593E-4,-2.3042134E-3,-3.7291595E-3],"categories":[],"categories_nodes":[],"categories_segments":[],"categories_sizes":[],"default_left":[0,0,0,0,0,0,0,0,0,0,0,0,0,0,0,0,0,0,0,0,0,0,0,0,0,0,0,0,0,0,0,0,0,0,0,0,0,0,0,0,0,0,0,0,0,0,0,0,0,0,0,0,0,0,0],"id":19,"left_children":[1,3,5,7,9,11,13,15,17,19,21,23,25,27,29,31,33,35,37,39,-1,-1,-1,41,43,45,-1,47,49,51,53,-1,-1,-1,-1,-1,-1,-1,-1,-1,-1,-1,-1,-1,-1,-1,-1,-1,-1,-1,-1,-1,-1,-1,-1],"loss_changes":[1.6731562E-1,7.108899E-2,1.1109611E-1,4.3400336E-2,3.0274615E-2,7.106367E-2,2.6652144E-2,1.0206749E-2,1.1579018E-2,2.6907675E-2,8.097589E-4,3.0433178E-2,1.2660777E-2,1.8747373E-2,4.4097695E-3,5.504675E-4,5.221869E-4,2.8448924E-3,4.0791556E-4,2.6516005E-2,0E0,0E0,0E0,2.4531767E-2,1.0520693E-2,5.923391E-3,0E0,1.3296876E-2,5.250646E-3,1.8287727E-3,7.519014E-4,0E0,0E0,0E0,0E0,0E0,0E0,0E0,0E0,0E0,0E0,0E0,0E0,0E0,0E0,0E0,0E0,0E0,0E0,0E0,0E0,0E0,0E0,0E0,0E0],"parents":[2147483647,0,0,1,1,2,2,3,3,4,4,5,5,6,6,7,7,8,8,9,9,10,10,11,11,12,12,13,13,14,14,15,15,16,16,17,17,18,18,19,19,23,23,24,24,25,25,27,27,28,28,29,29,30,30],"right_children":[2,4,6,8,10,12,14,16,18,20,22,24,26,28,30,32,34,36,38,40,-1,-1,-1,42,44,46,-1,48,50,52,54,-1,-1,-1,-1,-1,-1,-1,-1,-1,-1,-1,-1,-1,-1,-1,-1,-1,-1,-1,-1,-1,-1,-1,-1],"split_conditions":[1.1410595E-1,6.579499E-1,5.5559393E-2,4.437767E-2,1.6871966E-1,2E-1,3.5695E-1,1.7807528E-2,6.576189E-1,4E-1,3.3333334E-1,7.362904E-1,1E0,3.5926774E-1,5.0875E-1,6.576189E-1,2.8604118E-2,5.4427575E-2,2.1218382E-2,4.663608E-2,-8.00611E-3,-3.4794882E-3,-4.985835E-3,2.1499085E-1,1.792045E-1,2.3238994E-1,-5.2679176E-3,7.2415316E-1,7.208238E-1,3.2036614E-1,8.333333E-1,-2.4296816E-3,-4.6899463E-3,-1.0315779E-3,-1.0680694E-4,-3.5063244E-4,1.7258155E-3,4.550785E-3,2.2240186E-3,-3.056981E-3,-6.82493E-4,6.2040105E-3,2.577178E-3,1.1674343E-3,3.8426747E-3,8.267145E-4,-2.69891E-3,9.929406E-4,-1.5110511E-3,2.0496366E-3,5.790997E-3,-1.8347352E-3,-1.7286593E-4,-2.3042134E-3,-3.7291595E-3],"split_indices":[1,0,2,1,2,5,2,1,0,5,2,0,5,1,2,0,1,1,5,1,0,0,0,3,1,1,0,0,1,1,2,0,0,0,0,0,0,0,0,0,0,0,0,0,0,0,0,0,0,0,0,0,0,0,0],"split_type":[0,0,0,0,0,0,0,0,0,0,0,0,0,0,0,0,0,0,0,0,0,0,0,0,0,0,0,0,0,0,0,0,0,0,0,0,0,0,0,0,0,0,0,0,0,0,0,0,0,0,0,0,0,0,0],"sum_hessian":[6.99E2,3.52E2,3.47E2,9.7E1,2.55E2,1.83E2,1.64E2,3.8E1,5.9E1,2.01E2,5.4E1,1.57E2,2.6E1,1.05E2,5.9E1,1.4E1,2.4E1,3.8E1,2.1E1,1.95E2,6E0,1.8E1,3.6E1,9.4E1,6.3E1,2E1,6E0,8.4E1,2.1E1,2.6E1,3.3E1,6E0,8E0,1.2E1,1.2E1,8E0,3E1,1.7E1,4E0,7.9E1,1.16E2,6.5E1,2.9E1,3.9E1,2.4E1,1.4E1,6E0,4.7E1,3.7E1,1.6E1,5E0,1.3E1,1.3E1,2.3E1,1E1],"tree_param":{"num_deleted":"0","num_feature":"6","num_nodes":"55","size_leaf_vector":"1"}},{"base_weights":[-5.360814E-4,-1.708207E-2,1.1278012E-2,2.6043297E-3,-2.5178436E-2,2.7473398E-2,-3.3200567E-3,-2.4511164E-2,1.4762896E-2,-2.0271074E-2,-4.101176E-2,3.4928985E-2,-1.7975038E-2,4.7062654E-3,-2.1239882E-2,-4.0170792E-3,-1.293663E-2,3.7373792E-2,7.7136313E-3,-1.830218E-2,-6.775565E-3,-4.657358E-3,-3.164306E-2,5.6111105E-2,2.3142982E-2,-2.8712933E-3,-5.5375487E-2,-1.8091588E-3,4.0761396E-2,-3.3642594E-2,-1.5629588E-2,-2.2908875E-4,-1.8535138E-3,4.8119314E-3,1.9754085E-3,-9.4046896E-5,1.6784888E-3,-2.7551036E-3,-8.325725E-4,-7.8709185E-4,-3.516781E-3,4.8239008E-3,7.1362047E-3,-6.4260873E-4,2.9456744E-3,2.2214353E-3,-1.2098955E-3,-6.706079E-3,-2.6924985E-3,4.334638E-4,-1.8922439E-3,8.514558E-3,2.9846493E-3,-1.3922158E-3,-3.6303722E-3,-5.235185E-4,-2.3520228E-3],"categories":[],"categories_nodes":[],"categories_segments":[],"categories_sizes":[],"default_left":[0,0,0,0,0,0,0,0,0,0,0,0,0,0,0,0,0,0,0,0,0,0,0,0,0,0,0,0,0,0,0,0,0,0,0,0,0,0,0,0,0,0,0,0,0,0,0,0,0,0,0,0,0,0,0,0,0],"id":20,"left_children":[1,3,5,7,9,11,13,15,17,19,21,23,25,27,29,-1,31,33,35,37,-1,-1,39,41,43,45,47,49,51,53,55,-1,-1,-1,-1,-1,-1,-1,-1,-1,-1,-1,-1,-1,-1,-1,-1,-1,-1,-1,-1,-1,-1,-1,-1,-1,-1],"loss_changes":[1.3702573E-1,4.6606958E-2,9.678756E-2,2.8714811E-2,1.5252516E-2,6.636371E-2,3.11673E-2,4.374152E-3,9.275125E-3,1.3718657E-2,1.0274127E-3,4.0393397E-2,1.5657831E-2,3.5310913E-2,4.1362327E-3,0E0,9.707429E-4,1.700107E-3,3.7054527E-3,1.407259E-2,0E0,0E0,1.4828052E-3,3.6409348E-3,2.0538721E-2,5.129889E-3,8.540116E-4,1.3540008E-2,8.601032E-3,5.4414384E-4,3.8137548E-3,0E0,0E0,0E0,0E0,0E0,0E0,0E0,0E0,0E0,0E0,0E0,0E0,0E0,0E0,0E0,0E0,0E0,0E0,0E0,0E0,0E0,0E0,0E0,0E0,0E0,0E0],"parents":[2147483647,0,0,1,1,2,2,3,3,4,4,5,5,6,6,7,7,8,8,9,9,10,10,11,11,12,12,13,13,14,14,16,16,17,17,18,18,19,19,22,22,23,23,24,24,25,25,26,26,27,27,28,28,29,29,30,30],"right_children":[2,4,6,8,10,12,14,16,18,20,22,24,26,28,30,-1,32,34,36,38,-1,-1,40,42,44,46,48,50,52,54,56,-1,-1,-1,-1,-1,-1,-1,-1,-1,-1,-1,-1,-1,-1,-1,-1,-1,-1,-1,-1,-1,-1,-1,-1,-1,-1],"split_conditions":[9.067499E-2,6.579499E-1,3.1913333E-2,2.8604118E-2,1.6871966E-1,2E-1,3.5695E-1,1.1404949E-2,1.6666668E-2,4E-1,6.0638193E-2,7.2415316E-1,1E0,3.9443055E-1,1.7457476E-1,-4.0170792E-3,1.6666668E-2,9.179708E-3,5.4879256E-2,4.663608E-2,-6.775565E-3,-4.657358E-3,7.268013E-1,1.792045E-1,1.1458021E-1,7.1311927E-1,1.7642665E-1,7.704954E-1,4.244008E-2,7.268013E-1,5.0875E-1,-2.2908875E-4,-1.8535138E-3,4.8119314E-3,1.9754085E-3,-9.4046896E-5,1.6784888E-3,-2.7551036E-3,-8.325725E-4,-7.8709185E-4,-3.516781E-3,4.8239008E-3,7.1362047E-3,-6.4260873E-4,2.9456744E-3,2.2214353E-3,-1.2098955E-3,-6.706079E-3,-2.6924985E-3,4.334638E-4,-1.8922439E-3,8.514558E-3,2.9846493E-3,-1.3922158E-3,-3.6303722E-3,-5.235185E-4,-2.3520228E-3],"split_indices":[1,0,2,1,2,5,2,1,2,5,1,0,5,1,1,0,2,5,1,1,0,0,0,1,1,0,1,0,2,0,2,0,0,0,0,0,0,0,0,0,0,0,0,0,0,0,0,0,0,0,0,0,0,0,0,0,0],"split_type":[0,0,0,0,0,0,0,0,0,0,0,0,0,0,0,0,0,0,0,0,0,0,0,0,0,0,0,0,0,0,0,0,0,0,0,0,0,0,0,0,0,0,0,0,0,0,0,0,0,0,0,0,0,0,0,0,0],"sum_hessian":[6.99E2,2.91E2,4.08E2,8.5E1,2.06E2,1.93E2,2.15E2,2.6E1,5.9E1,1.59E2,4.7E1,1.66E2,2.7E1,1.49E2,6.6E1,1E1,1.6E1,1.3E1,4.6E1,1.54E2,5E0,2.7E1,2E1,5.8E1,1.08E2,2E1,7E0,1.27E2,2.2E1,1.9E1,4.7E1,6E0,1E1,7E0,6E0,2.4E1,2.2E1,7.9E1,7.5E1,3E0,1.7E1,4.1E1,1.7E1,1.9E1,8.9E1,5E0,1.5E1,4E0,3E0,9.4E1,3.3E1,3E0,1.9E1,3E0,1.6E1,2.1E1,2.6E1],"tree_param":{"num_deleted":"0","num_feature":"6","num_nodes":"57","size_leaf_vector":"1"}},{"base_weights":[-4.9538177E-4,-1.3055823E-2,1.224695E-2,-1.4438753E-3,-2.5980245E-2,2.3439609E-2,-6.9362447E-3,-3.3721425E-2,6.2103067E-3,-1.5610252E-2,-3.7062485E-2,2.8448045E-2,-1.3415076E-2,-1.1814364E-2,2.1927306E-2,-4.1658366E-3,-1.9832483E-2,8.331356E-3,-5.7814815E-3,-1.2884854E-2,-5.827487E-3,-3.284941E-2,-4.6676537E-3,3.6073748E-2,6.358852E-3,-2.536003E-3,-4.4135856E-3,-6.6713872E-3,-2.4302607E-2,3.6023166E-2,-1.9573923E-3,-1.0148216E-3,-2.1407863E-3,2.8730792E-3,-2.9632514E-5,-4.4933734E-3,-9.3877653E-4,-2.5853717E-3,-4.3439716E-3,4.5745275E-3,2.0944492E-3,-5.785138E-6,6.5404098E-3,7.7097496E-4,-2.41289E-3,-1.3236523E-3,9.198786E-4,-1.9598322E-3,-3.1501853E-3,1.8385205E-3,5.0596925E-3,1.1106171E-4,-4.0203214E-4],"categories":[],"categories_nodes":[],"categories_segments":[],"categories_sizes":[],"default_left":[0,0,0,0,0,0,0,0,0,0,0,0,0,0,0,0,0,0,0,0,0,0,0,0,0,0,0,0,0,0,0,0,0,0,0,0,0,0,0,0,0,0,0,0,0,0,0,0,0,0,0,0,0],"id":21,"left_children":[1,3,5,7,9,11,13,15,17,19,21,23,25,27,29,-1,31,33,-1,35,-1,37,-1,39,41,43,-1,45,47,49,51,-1,-1,-1,-1,-1,-1,-1,-1,-1,-1,-1,-1,-1,-1,-1,-1,-1,-1,-1,-1,-1,-1],"loss_changes":[1.12194404E-1,5.2939918E-2,7.4881986E-2,4.6409313E-2,1.861354E-2,4.0990204E-2,1.8422239E-2,3.1422935E-3,2.1123342E-2,9.481603E-3,1.7070845E-3,3.244905E-2,8.911839E-3,6.967038E-3,6.4673433E-3,0E0,1.15945E-5,2.6056487E-2,0E0,8.992706E-3,0E0,3.248021E-3,0E0,2.0112395E-2,1.9326448E-2,4.831973E-3,0E0,8.456947E-3,4.6637282E-4,2.154381E-3,5.509772E-5,0E0,0E0,0E0,0E0,0E0,0E0,0E0,0E0,0E0,0E0,0E0,0E0,0E0,0E0,0E0,0E0,0E0,0E0,0E0,0E0,0E0,0E0],"parents":[2147483647,0,0,1,1,2,2,3,3,4,4,5,5,6,6,7,7,8,8,9,9,10,10,11,11,12,12,13,13,14,14,16,16,17,17,19,19,21,21,23,23,24,24,25,25,27,27,28,28,29,29,30,30],"right_children":[2,4,6,8,10,12,14,16,18,20,22,24,26,28,30,-1,32,34,-1,36,-1,38,-1,40,42,44,-1,46,48,50,52,-1,-1,-1,-1,-1,-1,-1,-1,-1,-1,-1,-1,-1,-1,-1,-1,-1,-1,-1,-1,-1,-1],"split_conditions":[1.1410595E-1,7.2415316E-1,8.3529815E-2,2.2940885E-2,3.1913333E-2,2E-1,6.5789473E-1,7.791499E-3,4E-1,1E-1,8.6980027E-1,4.532699E-1,1E0,5.0875E-1,2.1205E-1,-4.1658366E-3,2.1499085E-1,3.1913333E-2,-5.7814815E-3,7.791499E-3,-5.827487E-3,2.1499085E-1,-4.6676537E-3,7.362904E-1,3.3981693E-1,2.3238994E-1,-4.4135856E-3,3.272311E-1,8.333333E-1,7.208238E-1,8.258634E-1,-1.0148216E-3,-2.1407863E-3,2.8730792E-3,-2.9632514E-5,-4.4933734E-3,-9.3877653E-4,-2.5853717E-3,-4.3439716E-3,4.5745275E-3,2.0944492E-3,-5.785138E-6,6.5404098E-3,7.7097496E-4,-2.41289E-3,-1.3236523E-3,9.198786E-4,-1.9598322E-3,-3.1501853E-3,1.8385205E-3,5.0596925E-3,1.1106171E-4,-4.0203214E-4],"split_indices":[1,0,2,1,2,5,1,1,5,5,0,3,5,2,2,0,3,2,0,1,0,3,0,0,1,1,0,1,2,1,0,0,0,0,0,0,0,0,0,0,0,0,0,0,0,0,0,0,0,0,0,0,0],"split_type":[0,0,0,0,0,0,0,0,0,0,0,0,0,0,0,0,0,0,0,0,0,0,0,0,0,0,0,0,0,0,0,0,0,0,0,0,0,0,0,0,0,0,0,0,0,0,0,0,0,0,0,0,0],"sum_hessian":[6.99E2,3.52E2,3.47E2,1.86E2,1.66E2,2.19E2,1.28E2,3.5E1,1.51E2,8.7E1,7.9E1,1.93E2,2.6E1,1.1E2,1.8E1,2.1E1,1.4E1,1.47E2,4E0,8.3E1,4E0,5.8E1,2.1E1,1.43E2,5E1,2E1,6E0,7.9E1,3.1E1,1.1E1,7E0,3E0,1.1E1,4.3E1,1.04E2,7E0,7.6E1,3.7E1,2.1E1,8.6E1,5.7E1,4.6E1,4E0,1.4E1,6E0,5.6E1,2.3E1,2.1E1,1E1,6E0,5E0,3E0,4E0],"tree_param":{"num_deleted":"0","num_feature":"6","num_nodes":"53","size_leaf_vector":"1"}},{"base_weights":[-4.8138294E-4,-1.8750247E-2,6.863663E-3,-3.4411315E-2,-1.3336572E-2,3.3399433E-2,6.288025E-5,-3.9897165E-3,-2.5998237E-2,-6.4183706E-3,-3.374021E-2,4.799411E-2,1.3846307E-2,4.882452E-3,-1.9834107E-2,-1.7849243E-3,-4.2074616E-3,-1.0360057E-3,-2.5538148E-2,-2.7294343E-2,-4.1804253E-3,4.211029E-2,6.0807248E-3,1.7037483E-2,-9.735917E-4,-3.2561237E-3,1.9363511E-2,-3.029167E-2,-1.302674E-2,6.840067E-5,-3.0413016E-3,-2.8759006E-3,-1.0545601E-3,-3.1958956E-3,-1.756799E-3,4.523935E-3,2.5262807E-3,2.003252E-3,1.1806993E-3,6.498822E-5,-3.4532428E-3,2.2991009E-3,-4.0406217E-3,-3.4091994E-4,-3.3152346E-3,-4.4419352E-4,-1.9306705E-3],"categories":[],"categories_nodes":[],"categories_segments":[],"categories_sizes":[],"default_left":[0,0,0,0,0,0,0,0,0,0,0,0,0,0,0,0,0,0,0,0,0,0,0,0,0,0,0,0,0,0,0,0,0,0,0,0,0,0,0,0,0,0,0,0,0,0,0],"id":22,"left_children":[1,3,5,7,9,11,13,-1,15,17,19,21,23,25,27,-1,-1,29,31,33,-1,35,-1,37,-1,39,41,43,45,-1,-1,-1,-1,-1,-1,-1,-1,-1,-1,-1,-1,-1,-1,-1,-1,-1,-1],"loss_changes":[9.405864E-2,1.6582645E-2,9.02299E-2,1.31654E-3,2.1098072E-2,2.8443366E-2,3.835893E-2,0E0,2.2621443E-3,1.1705239E-2,8.3421543E-4,1.8120259E-3,3.552352E-3,3.801242E-2,5.1580984E-3,0E0,0E0,4.5683966E-3,9.039398E-4,5.274173E-4,0E0,1.1239424E-3,0E0,3.9009657E-4,0E0,2.5310688E-2,2.6079461E-2,2.1940358E-3,2.5559422E-3,0E0,0E0,0E0,0E0,0E0,0E0,0E0,0E0,0E0,0E0,0E0,0E0,0E0,0E0,0E0,0E0,0E0,0E0],"parents":[2147483647,0,0,1,1,2,2,3,3,4,4,5,5,6,6,8,8,9,9,10,10,11,11,12,12,13,13,14,14,17,17,18,18,19,19,21,21,23,23,25,25,26,26,27,27,28,28],"right_children":[2,4,6,8,10,12,14,-1,16,18,20,22,24,26,28,-1,-1,30,32,34,-1,36,-1,38,-1,40,42,44,46,-1,-1,-1,-1,-1,-1,-1,-1,-1,-1,-1,-1,-1,-1,-1,-1,-1,-1],"split_conditions":[6.0638193E-2,2.2940885E-2,6.830409E-1,7.791499E-3,8.124241E-1,4.532699E-1,3.5695E-1,-3.9897165E-3,7.704954E-1,8.3529815E-2,8.6980027E-1,1.792045E-1,6.891E-2,1.7886573E-1,1.7276888E-1,-1.7849243E-3,-4.2074616E-3,1E-1,5.1378727E-2,4.5958556E-2,-4.1804253E-3,2.1218382E-2,6.0807248E-3,5.6586772E-2,-9.735917E-4,8.258634E-1,4E-1,7.2415316E-1,5.0875E-1,6.840067E-5,-3.0413016E-3,-2.8759006E-3,-1.0545601E-3,-3.1958956E-3,-1.756799E-3,4.523935E-3,2.5262807E-3,2.003252E-3,1.1806993E-3,6.498822E-5,-3.4532428E-3,2.2991009E-3,-4.0406217E-3,-3.4091994E-4,-3.3152346E-3,-4.4419352E-4,-1.9306705E-3],"split_indices":[1,1,0,1,0,3,2,0,0,2,0,1,2,1,1,0,0,5,1,1,0,5,0,2,0,0,5,0,2,0,0,0,0,0,0,0,0,0,0,0,0,0,0,0,0,0,0],"split_type":[0,0,0,0,0,0,0,0,0,0,0,0,0,0,0,0,0,0,0,0,0,0,0,0,0,0,0,0,0,0,0,0,0,0,0,0,0,0,0,0,0,0,0,0,0,0,0],"sum_hessian":[6.99E2,2E2,4.99E2,5E1,1.5E2,1.01E2,3.98E2,2.8E1,2.2E1,1.13E2,3.7E1,5.7E1,4.4E1,3.21E2,7.7E1,1.6E1,6E0,8.9E1,2.4E1,2.3E1,1.4E1,4.2E1,1.5E1,3.9E1,5E0,2.06E2,1.15E2,2.9E1,4.8E1,8.5E1,4E0,1.9E1,5E0,1.4E1,9E0,3.4E1,8E0,2.3E1,1.6E1,1.84E2,2.2E1,1.09E2,6E0,3E0,2.6E1,2.1E1,2.7E1],"tree_param":{"num_deleted":"0","num_feature":"6","num_nodes":"47","size_leaf_vector":"1"}},{"base_weights":[-4.6444582E-4,-1.0824817E-2,1.0350357E-2,-3.7763056E-3,-2.6475322E-2,2.0806286E-2,-4.9593565E-3,-2.2326864E-2,3.791019E-3,-2.2346511E-2,-4.0511154E-3,2.4128523E-2,-2.2662463E-2,-8.661197E-3,1.9071372E-2,-3.5723753E-3,-1.3494871E-2,1.5091449E-2,-8.072546E-3,-3.1467304E-3,-1.7565688E-2,1.712702E-2,3.732946E-2,-5.6413114E-3,-3.6850806E-2,-4.5804903E-3,-1.9995043E-2,3.088816E-2,-1.0377318E-3,-4.4231937E-4,-1.995405E-3,3.4006243E-3,5.6957203E-4,-5.279969E-3,-4.7013824E-4,-1.468446E-3,-3.7282926E-3,2.2313972E-3,-2.7182465E-4,3.327891E-3,7.928028E-3,2.0927973E-3,-2.5768478E-3,-4.6084994E-3,-2.2093297E-3,-1.0084687E-4,-1.9010997E-3,-1.5758792E-3,-2.6649812E-3,1.4838661E-3,4.446455E-3,-3.2364935E-4,1.9701534E-4],"categories":[],"categories_nodes":[],"categories_segments":[],"categories_sizes":[],"default_left":[0,0,0,0,0,0,0,0,0,0,0,0,0,0,0,0,0,0,0,0,0,0,0,0,0,0,0,0,0,0,0,0,0,0,0,0,0,0,0,0,0,0,0,0,0,0,0,0,0,0,0,0,0],"id":23,"left_children":[1,3,5,7,9,11,13,15,17,19,-1,21,23,25,27,-1,29,31,33,-1,35,37,39,41,43,45,47,49,51,-1,-1,-1,-1,-1,-1,-1,-1,-1,-1,-1,-1,-1,-1,-1,-1,-1,-1,-1,-1,-1,-1,-1,-1],"loss_changes":[7.854381E-2,3.939198E-2,5.5009697E-2,3.489841E-2,5.5273175E-3,3.0007161E-2,1.2619289E-2,8.037038E-3,2.3851046E-2,3.2844841E-3,0E0,1.6921684E-2,3.4146416E-3,5.5509247E-3,4.546928E-3,0E0,2.5485419E-3,1.5978668E-2,1.2869846E-2,0E0,2.8611142E-3,1.3030648E-2,8.406691E-3,4.817397E-3,7.2019175E-5,4.671521E-3,4.8215222E-4,1.9549355E-3,5.928537E-5,0E0,0E0,0E0,0E0,0E0,0E0,0E0,0E0,0E0,0E0,0E0,0E0,0E0,0E0,0E0,0E0,0E0,0E0,0E0,0E0,0E0,0E0,0E0,0E0],"parents":[2147483647,0,0,1,1,2,2,3,3,4,4,5,5,6,6,7,7,8,8,9,9,11,11,12,12,13,13,14,14,16,16,17,17,18,18,20,20,21,21,22,22,23,23,24,24,25,25,26,26,27,27,28,28],"right_children":[2,4,6,8,10,12,14,16,18,20,-1,22,24,26,28,-1,30,32,34,-1,36,38,40,42,44,46,48,50,52,-1,-1,-1,-1,-1,-1,-1,-1,-1,-1,-1,-1,-1,-1,-1,-1,-1,-1,-1,-1,-1,-1,-1,-1],"split_conditions":[1.1670481E-1,7.599029E-1,6.891E-2,3.1165998E-2,8.6980027E-1,6E-1,6.5789473E-1,7.791499E-3,6.8337196E-1,4.5958556E-2,-4.0511154E-3,1.792045E-1,1.6971919E-1,5.0875E-1,2.1205E-1,-3.5723753E-3,3.1913333E-2,4.532699E-1,7.020854E-1,-3.1467304E-3,6.504667E-1,8.124241E-1,4.5190698E-1,9E-1,8E-1,2.1499085E-1,8.333333E-1,7.208238E-1,7.414188E-1,-4.4231937E-4,-1.995405E-3,3.4006243E-3,5.6957203E-4,-5.279969E-3,-4.7013824E-4,-1.468446E-3,-3.7282926E-3,2.2313972E-3,-2.7182465E-4,3.327891E-3,7.928028E-3,2.0927973E-3,-2.5768478E-3,-4.6084994E-3,-2.2093297E-3,-1.0084687E-4,-1.9010997E-3,-1.5758792E-3,-2.6649812E-3,1.4838661E-3,4.446455E-3,-3.2364935E-4,1.9701534E-4],"split_indices":[1,0,2,1,0,5,1,1,0,1,0,1,1,2,2,0,2,3,0,0,2,0,1,5,5,3,2,1,1,0,0,0,0,0,0,0,0,0,0,0,0,0,0,0,0,0,0,0,0,0,0,0,0],"split_type":[0,0,0,0,0,0,0,0,0,0,0,0,0,0,0,0,0,0,0,0,0,0,0,0,0,0,0,0,0,0,0,0,0,0,0,0,0,0,0,0,0,0,0,0,0,0,0,0,0,0,0,0,0],"sum_hessian":[6.99E2,3.57E2,3.42E2,2.47E2,1.1E2,2.03E2,1.39E2,7.1E1,1.76E2,8.7E1,2.3E1,1.89E2,1.4E1,1.21E2,1.8E1,2.7E1,4.4E1,9E1,8.6E1,2.8E1,5.9E1,1.25E2,6.4E1,7E0,7E0,9E1,3.1E1,1.1E1,7E0,1.9E1,2.5E1,2.9E1,6.1E1,5E0,8.1E1,5.3E1,6E0,9.9E1,2.6E1,6E1,4E0,3E0,4E0,3E0,4E0,7.3E1,1.7E1,2.1E1,1E1,6E0,5E0,4E0,3E0],"tree_param":{"num_deleted":"0","num_feature":"6","num_nodes":"53","size_leaf_vector":"1"}},{"base_weights":[-4.390178E-4,-1.197036E-2,7.508941E-3,1.419614E-3,-1.7452072E-2,3.212624E-2,2.0725587E-3,-1.5762756E-2,1.1257278E-2,-1.644054E-2,-6.366563E-3,4.234945E-2,1.1230593E-2,6.4430907E-3,-1.5249583E-2,-2.6912934E-3,-9.17158E-3,1.974142E-2,-1.9806304E-3,-1.3167561E-2,-3.1494085E-2,3.6733896E-2,5.1986636E-3,1.5237879E-2,-8.6475856E-4,3.8770044E-3,3.5543576E-2,-3.0404653E-3,-1.2165594E-2,-4.894006E-4,-1.5510888E-3,3.3200902E-3,1.4106351E-3,4.652098E-4,-6.9303735E-4,-9.115014E-4,-2.2940177E-3,-3.6431972E-3,-1.7408513E-3,3.9820382E-3,1.8699331E-3,2.6328606E-4,1.9800207E-3,7.8963314E-4,-2.126843E-3,6.753539E-3,2.2161547E-3,-1.4798801E-3,-2.644658E-4],"categories":[],"categories_nodes":[],"categories_segments":[],"categories_sizes":[],"default_left":[0,0,0,0,0,0,0,0,0,0,0,0,0,0,0,0,0,0,0,0,0,0,0,0,0,0,0,0,0,0,0,0,0,0,0,0,0,0,0,0,0,0,0,0,0,0,0,0,0],"id":24,"left_children":[1,3,5,7,9,11,13,15,17,19,-1,21,23,25,27,-1,29,31,33,35,37,39,-1,41,-1,43,45,-1,47,-1,-1,-1,-1,-1,-1,-1,-1,-1,-1,-1,-1,-1,-1,-1,-1,-1,-1,-1,-1],"loss_changes":[6.424533E-2,2.1017168E-2,5.5472463E-2,1.4376334E-2,8.442838E-3,1.5545942E-2,2.5914334E-2,2.0314422E-3,6.1039645E-3,9.43929E-3,0E0,7.9622865E-4,2.202867E-3,2.0248294E-2,2.8550364E-3,0E0,4.935437E-4,2.034545E-3,7.545073E-4,6.3651577E-3,1.800131E-3,1.203604E-3,0E0,1.21305E-3,0E0,2.5637008E-2,7.921848E-3,0E0,1.4400277E-3,0E0,0E0,0E0,0E0,0E0,0E0,0E0,0E0,0E0,0E0,0E0,0E0,0E0,0E0,0E0,0E0,0E0,0E0,0E0,0E0],"parents":[2147483647,0,0,1,1,2,2,3,3,4,4,5,5,6,6,7,7,8,8,9,9,11,11,12,12,13,13,14,14,16,16,17,17,18,18,19,19,20,20,21,21,23,23,25,25,26,26,28,28],"right_children":[2,4,6,8,10,12,14,16,18,20,-1,22,24,26,28,-1,30,32,34,36,38,40,-1,42,-1,44,46,-1,48,-1,-1,-1,-1,-1,-1,-1,-1,-1,-1,-1,-1,-1,-1,-1,-1,-1,-1,-1,-1],"split_conditions":[8.5593574E-2,6.579499E-1,6.830409E-1,3.206936E-2,8E-1,4.532699E-1,3.5695E-1,1.1404949E-2,5.55E-2,2.1205E-1,-6.366563E-3,1.792045E-1,6.891E-2,4.4393593E-1,1.2071178E-1,-2.6912934E-3,5.55E-2,7.584708E-3,4.6681922E-2,4.538749E-1,7.23819E-2,2.1218382E-2,5.1986636E-3,5.55E-2,-8.6475856E-4,6.806611E-1,4.244008E-2,-3.0404653E-3,6.006865E-1,-4.894006E-4,-1.5510888E-3,3.3200902E-3,1.4106351E-3,4.652098E-4,-6.9303735E-4,-9.115014E-4,-2.2940177E-3,-3.6431972E-3,-1.7408513E-3,3.9820382E-3,1.8699331E-3,2.6328606E-4,1.9800207E-3,7.8963314E-4,-2.126843E-3,6.753539E-3,2.2161547E-3,-1.4798801E-3,-2.644658E-4],"split_indices":[1,0,0,1,5,3,2,1,2,2,0,1,2,1,1,0,2,2,1,3,1,5,0,2,0,3,2,0,1,0,0,0,0,0,0,0,0,0,0,0,0,0,0,0,0,0,0,0,0],"split_type":[0,0,0,0,0,0,0,0,0,0,0,0,0,0,0,0,0,0,0,0,0,0,0,0,0,0,0,0,0,0,0,0,0,0,0,0,0,0,0,0,0,0,0,0,0,0,0,0,0],"sum_hessian":[6.99E2,2.85E2,4.14E2,8.3E1,2.02E2,7.4E1,3.4E2,3E1,5.3E1,1.99E2,3E0,4.9E1,2.5E1,2.72E2,6.8E1,1E1,2E1,3.2E1,2.1E1,1.65E2,3.4E1,3.4E1,1.5E1,2.1E1,4E0,2.51E2,2.1E1,1E1,5.8E1,1.3E1,7E0,8E0,2.4E1,9E0,1.2E1,1.18E2,4.7E1,2.4E1,1E1,2.8E1,6E0,6E0,1.5E1,2.17E2,3.4E1,5E0,1.6E1,4.5E1,1.3E1],"tree_param":{"num_deleted":"0","num_feature":"6","num_nodes":"49","size_leaf_vector":"1"}},{"base_weights":[-3.9498796E-4,-9.527809E-3,8.0614835E-3,4.0387753E-3,-1.5027799E-2,2.004088E-2,-2.1953704E-3,-1.1701837E-2,1.4202861E-2,-1.3907477E-2,-6.490141E-3,2.5863111E-2,-1.1321994E-2,-6.984717E-3,9.988248E-3,-2.2143092E-2,-4.969011E-3,2.9850539E-2,9.669055E-3,-9.252306E-3,-2.5272425E-2,3.3431996E-2,1.4648713E-2,-4.6682023E-3,-3.1427701E-3,2.504199E-3,-1.8923266E-2,2.4475012E-2,-6.4780917E-3,-1.3580169E-3,-2.6342801E-3,-8.3834166E-4,-1.687448E-4,3.7897178E-3,9.3964813E-4,-3.8966638E-4,1.4299203E-3,-2.93628E-3,-5.3905183E-4,-2.168838E-3,-3.2789714E-3,2.8559796E-3,4.215641E-3,9.5938955E-4,2.8836583E-3,1.5398989E-3,-2.1422633E-3,1.1315225E-3,-1.1787913E-3,-1.3805954E-3,-2.8500466E-3,5.5937255E-3,1.7483234E-3,-1.7268583E-5,-1.0802265E-3],"categories":[],"categories_nodes":[],"categories_segments":[],"categories_sizes":[],"default_left":[0,0,0,0,0,0,0,0,0,0,0,0,0,0,0,0,0,0,0,0,0,0,0,0,0,0,0,0,0,0,0,0,0,0,0,0,0,0,0,0,0,0,0,0,0,0,0,0,0,0,0,0,0,0,0],"id":25,"left_children":[1,3,5,7,9,11,13,15,17,19,-1,21,23,25,27,29,31,33,35,37,39,41,43,-1,45,47,49,51,53,-1,-1,-1,-1,-1,-1,-1,-1,-1,-1,-1,-1,-1,-1,-1,-1,-1,-1,-1,-1,-1,-1,-1,-1,-1,-1],"loss_changes":[5.4138817E-2,2.520631E-2,4.476901E-2,1.5845114E-2,1.2507264E-2,3.096994E-2,1.1565025E-2,2.6316377E-3,3.9679846E-3,1.2251936E-2,0E0,1.1563301E-2,7.662164E-3,1.61337E-2,1.3517015E-2,1.816866E-4,2.6596815E-4,1.7835228E-3,3.07066E-3,1.2966675E-2,1.1209212E-3,2.3666099E-3,3.9546518E-3,0E0,8.125526E-3,1.0207635E-2,2.6941244E-3,5.6213457E-3,7.343077E-4,0E0,0E0,0E0,0E0,0E0,0E0,0E0,0E0,0E0,0E0,0E0,0E0,0E0,0E0,0E0,0E0,0E0,0E0,0E0,0E0,0E0,0E0,0E0,0E0,0E0,0E0],"parents":[2147483647,0,0,1,1,2,2,3,3,4,4,5,5,6,6,7,7,8,8,9,9,11,11,12,12,13,13,14,14,15,15,16,16,17,17,18,18,19,19,20,20,21,21,22,22,24,24,25,25,26,26,27,27,28,28],"right_children":[2,4,6,8,10,12,14,16,18,20,-1,22,24,26,28,30,32,34,36,38,40,42,44,-1,46,48,50,52,54,-1,-1,-1,-1,-1,-1,-1,-1,-1,-1,-1,-1,-1,-1,-1,-1,-1,-1,-1,-1,-1,-1,-1,-1,-1,-1],"split_conditions":[1.12920284E-1,6.579499E-1,3.1913333E-2,4.437767E-2,8E-1,2E-1,3.384221E-1,1.7807528E-2,7.584708E-3,8.124241E-1,-6.490141E-3,7.3518705E-1,1.5018398E-1,7.362904E-1,2.1205E-1,6.576189E-1,2.3487419E-2,9.179708E-3,5.4427575E-2,1.7163884E-2,8.6980027E-1,1.792045E-1,2.1796338E-1,-4.6682023E-3,1.6971919E-1,6.806611E-1,8.675935E-1,4.244008E-2,5.0875E-1,-1.3580169E-3,-2.6342801E-3,-8.3834166E-4,-1.687448E-4,3.7897178E-3,9.3964813E-4,-3.8966638E-4,1.4299203E-3,-2.93628E-3,-5.3905183E-4,-2.168838E-3,-3.2789714E-3,2.8559796E-3,4.215641E-3,9.5938955E-4,2.8836583E-3,1.5398989E-3,-2.1422633E-3,1.1315225E-3,-1.1787913E-3,-1.3805954E-3,-2.8500466E-3,5.5937255E-3,1.7483234E-3,-1.7268583E-5,-1.0802265E-3],"split_indices":[1,0,2,1,5,5,1,1,2,0,0,0,1,0,2,0,1,5,1,1,0,1,1,0,1,3,0,2,2,0,0,0,0,0,0,0,0,0,0,0,0,0,0,0,0,0,0,0,0,0,0,0,0,0,0],"split_type":[0,0,0,0,0,0,0,0,0,0,0,0,0,0,0,0,0,0,0,0,0,0,0,0,0,0,0,0,0,0,0,0,0,0,0,0,0,0,0,0,0,0,0,0,0,0,0,0,0,0,0,0,0,0,0],"sum_hessian":[6.99E2,3.36E2,3.63E2,9.7E1,2.39E2,1.67E2,1.96E2,3.8E1,5.9E1,2.35E2,4E0,1.41E2,2.6E1,1.41E2,5.5E1,1.4E1,2.4E1,1.2E1,4.7E1,1.68E2,6.7E1,8.3E1,5.8E1,4E0,2.2E1,7.9E1,6.2E1,2.9E1,2.6E1,6E0,8E0,1.1E1,1.3E1,8E0,4E0,1.2E1,3.5E1,2.6E1,1.42E2,4.8E1,1.9E1,5.6E1,2.7E1,4.4E1,1.4E1,1.1E1,1.1E1,4.9E1,3E1,4.2E1,2E1,4E0,2.5E1,1.1E1,1.5E1],"tree_param":{"num_deleted":"0","num_feature":"6","num_nodes":"55","size_leaf_vector":"1"}},{"base_weights":[-3.655342E-4,-1.6597675E-2,3.5780277E-3,-1.0807007E-2,-2.4069967E-2,2.0126019E-2,-1.1312378E-3,-2.4094522E-2,-4.570735E-3,-3.1365238E-3,-1.9820582E-2,3.04795E-2,4.505682E-3,-1.1007402E-2,4.0150797E-3,-2.5259922E-3,-1.1661202E-3,2.2158248E-4,-1.3662579E-2,-1.525589E-2,-3.6172364E-3,2.583302E-2,4.119745E-3,-1.122053E-2,7.262591E-3,-8.07713E-3,-3.0939972E-3,1.20231155E-2,-3.4361796E-3,-6.746609E-4,1.0891369E-3,-9.829365E-4,-2.557979E-3,-1.8482104E-4,-2.0206762E-3,2.747895E-3,3.877926E-4,1.0371265E-3,-3.540514E-3,9.830795E-4,-7.7166007E-4,-5.461975E-4,-2.9915802E-3,1.5800821E-3,-2.0511148E-3,-6.099822E-4,1.5390164E-3],"categories":[],"categories_nodes":[],"categories_segments":[],"categories_sizes":[],"default_left":[0,0,0,0,0,0,0,0,0,0,0,0,0,0,0,0,0,0,0,0,0,0,0,0,0,0,0,0,0,0,0,0,0,0,0,0,0,0,0,0,0,0,0,0,0,0,0],"id":26,"left_children":[1,3,5,7,9,11,13,15,17,-1,19,21,23,25,27,-1,-1,29,31,33,-1,35,-1,37,39,41,-1,43,45,-1,-1,-1,-1,-1,-1,-1,-1,-1,-1,-1,-1,-1,-1,-1,-1,-1,-1],"loss_changes":[4.4868104E-2,5.6678057E-3,4.397465E-2,6.436171E-3,1.207348E-3,2.0078283E-2,2.2407578E-2,6.768294E-5,2.3994325E-3,0E0,2.4337936E-3,2.6708022E-3,2.2926328E-3,8.56968E-3,1.73456E-2,0E0,0E0,2.8243973E-3,6.1650993E-4,2.1531838E-3,0E0,1.8809512E-3,0E0,4.544709E-3,1.7685236E-3,7.43243E-3,0E0,1.7530773E-2,7.666018E-3,0E0,0E0,0E0,0E0,0E0,0E0,0E0,0E0,0E0,0E0,0E0,0E0,0E0,0E0,0E0,0E0,0E0,0E0],"parents":[2147483647,0,0,1,1,2,2,3,3,4,4,5,5,6,6,7,7,8,8,10,10,11,11,12,12,13,13,14,14,17,17,18,18,19,19,21,21,23,23,24,24,25,25,27,27,28,28],"right_children":[2,4,6,8,10,12,14,16,18,-1,20,22,24,26,28,-1,-1,30,32,34,-1,36,-1,38,40,42,-1,44,46,-1,-1,-1,-1,-1,-1,-1,-1,-1,-1,-1,-1,-1,-1,-1,-1,-1,-1],"split_conditions":[4.5958556E-2,7.1311927E-1,6.830409E-1,1.1404949E-2,2.3340961E-2,6.806611E-1,1.1670481E-1,7.791499E-3,1.2267619E-2,-3.1365238E-3,3.8957495E-2,1.7906179E-1,5.216917E-2,8.258634E-1,5.5559393E-2,-2.5259922E-3,-1.1661202E-3,3.1165998E-2,6.579499E-1,7.599029E-1,-3.6172364E-3,3.198913E-2,4.119745E-3,4.6681922E-2,6.576189E-1,5.0875E-1,-3.0939972E-3,6E-1,6.5789473E-1,-6.746609E-4,1.0891369E-3,-9.829365E-4,-2.557979E-3,-1.8482104E-4,-2.0206762E-3,2.747895E-3,3.877926E-4,1.0371265E-3,-3.540514E-3,9.830795E-4,-7.7166007E-4,-5.461975E-4,-2.9915802E-3,1.5800821E-3,-2.0511148E-3,-6.099822E-4,1.5390164E-3],"split_indices":[1,0,0,1,1,3,1,1,5,0,1,1,1,0,2,0,0,1,0,0,0,5,0,1,0,2,0,5,1,0,0,0,0,0,0,0,0,0,0,0,0,0,0,0,0,0,0],"split_type":[0,0,0,0,0,0,0,0,0,0,0,0,0,0,0,0,0,0,0,0,0,0,0,0,0,0,0,0,0,0,0,0,0,0,0,0,0,0,0,0,0,0,0,0,0,0,0],"sum_hessian":[6.99E2,1.36E2,5.63E2,7.8E1,5.8E1,1.24E2,4.39E2,2.4E1,5.4E1,1.9E1,3.9E1,7.4E1,5E1,1.5E2,2.89E2,2.1E1,3E0,3.6E1,1.8E1,3.2E1,7E0,5.4E1,2E1,7E0,4.3E1,1.32E2,1.8E1,1.39E2,1.5E2,2.2E1,1.4E1,1.5E1,3E0,9E0,2.3E1,5E1,4E0,4E0,3E0,3.7E1,6E0,1.19E2,1.3E1,1.25E2,1.4E1,1.32E2,1.8E1],"tree_param":{"num_deleted":"0","num_feature":"6","num_nodes":"47","size_leaf_vector":"1"}},{"base_weights":[-3.5324815E-4,-1.5053072E-2,3.21808E-3,-9.812614E-3,-2.181482E-2,1.8153122E-2,-1.0321432E-3,-2.1832755E-2,-4.170502E-3,-2.8385539E-3,-1.7984089E-2,2.9245438E-2,6.035847E-3,1.3337308E-3,-1.9512635E-2,-2.2848747E-3,-1.0786612E-3,2.1063094E-4,-1.2482682E-2,-1.3797132E-2,-3.3007276E-3,3.101749E-2,1.0131657E-2,8.3527835E-3,-1.03579555E-2,2.51185E-3,-4.3803804E-2,-2.9503934E-2,-1.3471544E-2,5.788254E-4,-1.1891773E-3,-8.907858E-4,-2.3661307E-3,-1.6818733E-4,-1.8270276E-3,2.738915E-3,3.983468E-3,7.39798E-5,1.6990602E-3,-7.8606233E-4,1.0167634E-3,-1.2286481E-3,-5.35781E-4,5.8874517E-4,-1.09355E-3,-5.8337315E-3,-1.7602826E-3,-1.5139407E-3,-3.386418E-3,-1.5062481E-3,-5.410563E-4],"categories":[],"categories_nodes":[],"categories_segments":[],"categories_sizes":[],"default_left":[0,0,0,0,0,0,0,0,0,0,0,0,0,0,0,0,0,0,0,0,0,0,0,0,0,0,0,0,0,0,0,0,0,0,0,0,0,0,0,0,0,0,0,0,0,0,0,0,0,0,0],"id":27,"left_children":[1,3,5,7,9,11,13,15,17,-1,19,21,23,25,27,-1,-1,29,31,33,-1,35,37,39,41,43,45,47,49,-1,-1,-1,-1,-1,-1,-1,-1,-1,-1,-1,-1,-1,-1,-1,-1,-1,-1,-1,-1,-1,-1],"loss_changes":[3.679697E-2,4.640484E-3,3.581991E-2,5.2666464E-3,9.7458065E-4,1.6624562E-2,1.926393E-2,3.4108758E-5,2.0055512E-3,0E0,2.0606518E-3,1.8873252E-3,2.4035051E-3,2.0902393E-2,2.6204549E-3,0E0,0E0,2.5664303E-3,5.4849917E-4,1.7576502E-3,0E0,7.9647824E-4,4.38358E-4,1.6688684E-3,1.1314696E-5,1.7404467E-2,2.7810223E-3,6.147083E-4,3.4171296E-4,0E0,0E0,0E0,0E0,0E0,0E0,0E0,0E0,0E0,0E0,0E0,0E0,0E0,0E0,0E0,0E0,0E0,0E0,0E0,0E0,0E0,0E0],"parents":[2147483647,0,0,1,1,2,2,3,3,4,4,5,5,6,6,7,7,8,8,10,10,11,11,12,12,13,13,14,14,17,17,18,18,19,19,21,21,22,22,23,23,24,24,25,25,26,26,27,27,28,28],"right_children":[2,4,6,8,10,12,14,16,18,-1,20,22,24,26,28,-1,-1,30,32,34,-1,36,38,40,42,44,46,48,50,-1,-1,-1,-1,-1,-1,-1,-1,-1,-1,-1,-1,-1,-1,-1,-1,-1,-1,-1,-1,-1,-1],"split_conditions":[4.5958556E-2,7.1311927E-1,6.830409E-1,1.1404949E-2,2.3340961E-2,4.532699E-1,5.0875E-1,7.791499E-3,1.2267619E-2,-2.8385539E-3,3.8957495E-2,3.198913E-2,6.891E-2,1E0,1.2071178E-1,-2.2848747E-3,-1.0786612E-3,8.3529815E-2,6.579499E-1,7.599029E-1,-3.3007276E-3,1.792045E-1,1.1675957E-1,4.9022082E-2,1.04118995E-1,4.532699E-1,1.5018398E-1,6.504667E-1,5.7894737E-1,5.788254E-4,-1.1891773E-3,-8.907858E-4,-2.3661307E-3,-1.6818733E-4,-1.8270276E-3,2.738915E-3,3.983468E-3,7.39798E-5,1.6990602E-3,-7.8606233E-4,1.0167634E-3,-1.2286481E-3,-5.35781E-4,5.8874517E-4,-1.09355E-3,-5.8337315E-3,-1.7602826E-3,-1.5139407E-3,-3.386418E-3,-1.5062481E-3,-5.410563E-4],"split_indices":[1,0,0,1,1,3,2,1,5,0,1,5,2,5,1,0,0,2,0,0,0,1,1,1,1,3,1,2,1,0,0,0,0,0,0,0,0,0,0,0,0,0,0,0,0,0,0,0,0,0,0],"split_type":[0,0,0,0,0,0,0,0,0,0,0,0,0,0,0,0,0,0,0,0,0,0,0,0,0,0,0,0,0,0,0,0,0,0,0,0,0,0,0,0,0,0,0,0,0,0,0,0,0,0,0],"sum_hessian":[6.99E2,1.36E2,5.63E2,7.8E1,5.8E1,1.24E2,4.39E2,2.4E1,5.4E1,1.9E1,3.9E1,6.4E1,6E1,3.9E2,4.9E1,2.1E1,3E0,3.6E1,1.8E1,3.2E1,7E0,5.8E1,6E0,5.3E1,7E0,3.81E2,9E0,1.7E1,3.2E1,2.5E1,1.1E1,1.5E1,3E0,9E0,2.3E1,4.4E1,1.4E1,3E0,3E0,5E0,4.8E1,4E0,3E0,3.05E2,7.6E1,5E0,4E0,5E0,1.2E1,2.6E1,6E0],"tree_param":{"num_deleted":"0","num_feature":"6","num_nodes":"51","size_leaf_vector":"1"}},{"base_weights":[-3.51425E-4,-7.4572894E-3,6.228321E-3,1.0516975E-3,-1.2941377E-2,1.293042E-2,-5.102627E-3,-1.3670917E-2,8.735659E-3,-1.1846007E-2,-5.438696E-3,1.7860575E-2,-3.778406E-3,-1.17634125E-2,4.335364E-3,-2.0667731E-3,-6.9668842E-3,1.9507976E-2,2.5347841E-3,-9.316249E-3,-2.7143576E-3,2.2442902E-2,4.3230187E-3,3.812632E-3,-1.649425E-2,-8.550887E-3,-2.7662514E-2,1.4578417E-2,-5.3693308E-3,1.1055082E-4,-1.1576699E-3,2.1792033E-3,-1.9284412E-4,-3.221186E-4,8.611367E-4,-5.636692E-4,-1.7610396E-3,2.6056287E-3,5.93536E-4,1.2010627E-4,2.493588E-3,7.677333E-4,-2.7091957E-3,-2.5429965E-3,1.5398884E-3,-1.5443335E-4,-1.2337546E-3,-3.763817E-3,-1.9046871E-3,9.0074865E-4,3.8403203E-3,-6.182077E-5,-8.9661777E-4],"categories":[],"categories_nodes":[],"categories_segments":[],"categories_sizes":[],"default_left":[0,0,0,0,0,0,0,0,0,0,0,0,0,0,0,0,0,0,0,0,0,0,0,0,0,0,0,0,0,0,0,0,0,0,0,0,0,0,0,0,0,0,0,0,0,0,0,0,0,0,0,0,0],"id":28,"left_children":[1,3,5,7,9,11,13,15,17,19,-1,21,23,25,27,-1,29,31,33,35,-1,37,39,41,43,45,47,49,51,-1,-1,-1,-1,-1,-1,-1,-1,-1,-1,-1,-1,-1,-1,-1,-1,-1,-1,-1,-1,-1,-1,-1,-1],"loss_changes":[3.27748E-2,1.5739389E-2,2.770855E-2,1.5165446E-2,8.662365E-3,1.8931843E-2,8.600563E-3,2.0137262E-3,5.828756E-3,7.525649E-3,0E0,1.0882899E-2,5.178789E-3,3.8495623E-3,5.7444014E-3,0E0,9.4310415E-4,1.6088095E-3,2.0214068E-3,5.211007E-3,0E0,7.718906E-3,2.930263E-3,4.2688516E-3,6.091352E-3,1.7850837E-3,4.0041748E-4,3.3704182E-3,5.07129E-4,0E0,0E0,0E0,0E0,0E0,0E0,0E0,0E0,0E0,0E0,0E0,0E0,0E0,0E0,0E0,0E0,0E0,0E0,0E0,0E0,0E0,0E0,0E0,0E0],"parents":[2147483647,0,0,1,1,2,2,3,3,4,4,5,5,6,6,7,7,8,8,9,9,11,11,12,12,13,13,14,14,16,16,17,17,18,18,19,19,21,21,22,22,23,23,24,24,25,25,26,26,27,27,28,28],"right_children":[2,4,6,8,10,12,14,16,18,20,-1,22,24,26,28,-1,30,32,34,36,-1,38,40,42,44,46,48,50,52,-1,-1,-1,-1,-1,-1,-1,-1,-1,-1,-1,-1,-1,-1,-1,-1,-1,-1,-1,-1,-1,-1,-1,-1],"split_conditions":[1.12920284E-1,6.83394E-1,8.3529815E-2,3.1165998E-2,8E-1,8.124241E-1,3.2036614E-1,7.791499E-3,6.806611E-1,3.3333334E-1,-5.438696E-3,4.532699E-1,8.23458E-1,8.675935E-1,2.1205E-1,-2.0667731E-3,3.1913333E-2,3.198913E-2,5.7476424E-2,8.124241E-1,-2.7143576E-3,3.198913E-2,2.3238994E-1,2.1499085E-1,2.98627E-1,7.2415316E-1,2.1205E-1,7.414188E-1,5.0875E-1,1.1055082E-4,-1.1576699E-3,2.1792033E-3,-1.9284412E-4,-3.221186E-4,8.611367E-4,-5.636692E-4,-1.7610396E-3,2.6056287E-3,5.93536E-4,1.2010627E-4,2.493588E-3,7.677333E-4,-2.7091957E-3,-2.5429965E-3,1.5398884E-3,-1.5443335E-4,-1.2337546E-3,-3.763817E-3,-1.9046871E-3,9.0074865E-4,3.8403203E-3,-6.182077E-5,-8.9661777E-4],"split_indices":[1,0,2,1,5,0,1,1,3,2,0,3,0,0,2,0,2,5,1,0,0,5,1,3,1,0,2,1,2,0,0,0,0,0,0,0,0,0,0,0,0,0,0,0,0,0,0,0,0,0,0,0,0],"split_type":[0,0,0,0,0,0,0,0,0,0,0,0,0,0,0,0,0,0,0,0,0,0,0,0,0,0,0,0,0,0,0,0,0,0,0,0,0,0,0,0,0,0,0,0,0,0,0,0,0,0,0,0,0],"sum_hessian":[6.99E2,3.36E2,3.63E2,1.32E2,2.04E2,2.28E2,1.35E2,4.5E1,8.7E1,2E2,4E0,1.76E2,5.2E1,7.9E1,5.6E1,2.1E1,2.4E1,3.1E1,5.6E1,1.73E2,2.7E1,1.31E2,4.5E1,3.3E1,1.9E1,6.7E1,1.2E1,2.7E1,2.9E1,9E0,1.5E1,2.8E1,3E0,2.9E1,2.7E1,1.21E2,5.2E1,1.07E2,2.4E1,4E1,5E0,3E1,3E0,1.5E1,4E0,2.4E1,4.3E1,4E0,8E0,2.3E1,4E0,1.3E1,1.6E1],"tree_param":{"num_deleted":"0","num_feature":"6","num_nodes":"53","size_leaf_vector":"1"}},{"base_weights":[-3.3266726E-4,-5.922829E-3,6.4791837E-3,-2.4870157E-3,-1.8394258E-2,1.3188038E-2,-3.7420106E-3,-1.3747561E-2,1.6834874E-3,-1.4215784E-2,-2.7007995E-2,1.184491E-2,6.0783457E-3,-9.966858E-3,3.968188E-3,-2.1175498E-3,-9.5039E-3,8.194216E-3,-6.7911027E-3,-1.528645E-2,-5.613312E-4,-2.0935504E-2,-3.463043E-2,1.4276183E-2,-1.698544E-2,2.6785198E-3,-1.407346E-2,1.32899005E-2,-4.86435E-3,-4.6279124E-4,-1.6945789E-3,1.0620005E-3,-4.2091585E-3,-1.8989915E-4,-2.0804424E-3,-1.187265E-3,-2.141566E-3,-2.4238718E-3,-8.1600476E-4,-3.9255074E-3,-1.7879702E-3,1.986473E-3,2.2453831E-4,-7.589055E-4,-2.2406469E-3,-1.1260308E-3,1.4955612E-3,-1.0955562E-3,-2.3813318E-3,7.5776293E-4,3.297196E-3,-5.608116E-5,-8.122303E-4],"categories":[],"categories_nodes":[],"categories_segments":[],"categories_sizes":[],"default_left":[0,0,0,0,0,0,0,0,0,0,0,0,0,0,0,0,0,0,0,0,0,0,0,0,0,0,0,0,0,0,0,0,0,0,0,0,0,0,0,0,0,0,0,0,0,0,0,0,0,0,0,0,0],"id":29,"left_children":[1,3,5,7,9,11,13,15,17,19,21,23,-1,25,27,-1,29,31,33,35,-1,37,39,41,43,45,47,49,51,-1,-1,-1,-1,-1,-1,-1,-1,-1,-1,-1,-1,-1,-1,-1,-1,-1,-1,-1,-1,-1,-1,-1,-1],"loss_changes":[2.6693918E-2,1.645131E-2,2.1718264E-2,1.4252672E-2,2.6034191E-3,1.14900395E-2,6.086896E-3,2.3835246E-3,1.23046655E-2,4.4839457E-4,4.7845952E-4,1.3350153E-2,0E0,3.6727632E-3,4.7577065E-3,0E0,1.8810504E-3,1.5816845E-2,6.610302E-3,8.1285834E-4,0E0,5.1961234E-4,7.279217E-5,1.1586994E-2,5.940269E-4,3.2487137E-3,1.34861E-3,2.8981697E-3,4.1606656E-4,0E0,0E0,0E0,0E0,0E0,0E0,0E0,0E0,0E0,0E0,0E0,0E0,0E0,0E0,0E0,0E0,0E0,0E0,0E0,0E0,0E0,0E0,0E0,0E0],"parents":[2147483647,0,0,1,1,2,2,3,3,4,4,5,5,6,6,7,7,8,8,9,9,10,10,11,11,13,13,14,14,16,16,17,17,18,18,19,19,21,21,22,22,23,23,24,24,25,25,26,26,27,27,28,28],"right_children":[2,4,6,8,10,12,14,16,18,20,22,24,-1,26,28,-1,30,32,34,36,-1,38,40,42,44,46,48,50,52,-1,-1,-1,-1,-1,-1,-1,-1,-1,-1,-1,-1,-1,-1,-1,-1,-1,-1,-1,-1,-1,-1,-1,-1],"split_conditions":[1.2647071E-1,8.124241E-1,8.3529815E-2,3.1165998E-2,8.6980027E-1,4.5190698E-1,3.2036614E-1,7.791499E-3,5.55E-2,1.1410595E-1,6.839694E-2,8.23458E-1,6.0783457E-3,7.2415316E-1,2.1205E-1,-2.1175498E-3,5.563355E-2,4E-1,7.2415316E-1,7.080102E-2,-5.613312E-4,5.4427575E-2,2.1499085E-1,2.1499085E-1,1.6971919E-1,7.127883E-1,8.675935E-1,7.208238E-1,5.0875E-1,-4.6279124E-4,-1.6945789E-3,1.0620005E-3,-4.2091585E-3,-1.8989915E-4,-2.0804424E-3,-1.187265E-3,-2.141566E-3,-2.4238718E-3,-8.1600476E-4,-3.9255074E-3,-1.7879702E-3,1.986473E-3,2.2453831E-4,-7.589055E-4,-2.2406469E-3,-1.1260308E-3,1.4955612E-3,-1.0955562E-3,-2.3813318E-3,7.5776293E-4,3.297196E-3,-5.608116E-5,-8.122303E-4],"split_indices":[1,0,2,1,0,1,1,1,2,1,1,0,0,0,2,0,2,5,0,1,0,1,3,3,1,0,0,1,2,0,0,0,0,0,0,0,0,0,0,0,0,0,0,0,0,0,0,0,0,0,0,0,0],"split_type":[0,0,0,0,0,0,0,0,0,0,0,0,0,0,0,0,0,0,0,0,0,0,0,0,0,0,0,0,0,0,0,0,0,0,0,0,0,0,0,0,0,0,0,0,0,0,0,0,0,0,0,0,0],"sum_hessian":[6.99E2,3.84E2,3.15E2,3.02E2,8.2E1,1.9E2,1.25E2,8.1E1,2.21E2,5.7E1,2.5E1,1.86E2,4E0,6.9E1,5.6E1,2.8E1,5.3E1,1.25E2,9.6E1,5E1,7E0,1.6E1,9E0,1.72E2,1.4E1,1.7E1,5.2E1,2.7E1,2.9E1,3.3E1,2E1,1.2E2,5E0,7.2E1,2.4E1,3.4E1,1.6E1,1.2E1,4E0,6E0,3E0,1.17E2,5.5E1,6E0,8E0,8E0,9E0,4.1E1,1.1E1,2.2E1,5E0,1.3E1,1.6E1],"tree_param":{"num_deleted":"0","num_feature":"6","num_nodes":"53","size_leaf_vector":"1"}},{"base_weights":[-3.2391972E-4,-6.1412477E-3,5.0627934E-3,1.1345565E-3,-1.083169E-2,1.25846295E-2,-2.124103E-3,-1.0204887E-2,7.870719E-3,-9.877453E-3,-4.702573E-3,1.933384E-2,-1.3558778E-3,-1.0721783E-2,2.5445118E-3,-1.6184038E-3,-4.512127E-3,1.7860249E-2,2.8254983E-3,-7.769308E-3,-2.2625297E-2,2.2014486E-2,-8.98314E-4,4.955946E-3,-1.3911732E-2,-2.4309473E-3,-2.0003986E-2,8.083442E-3,-6.466195E-3,-1.285593E-5,-9.980873E-4,2.3326732E-3,5.6879077E-4,4.8003704E-4,-1.1966497E-3,-6.4144924E-4,-2.934684E-3,-2.536163E-3,-1.5163737E-3,2.456037E-3,8.2034676E-4,3.124929E-4,-1.2743464E-3,2.6312907E-4,2.5220022E-3,-5.107386E-4,-1.732021E-3,-1.5750614E-3,-7.427773E-5,-1.6285047E-3,-3.6085465E-3,1.0347567E-3,-2.6136641E-3,-4.5987844E-4,-1.4994972E-3],"categories":[],"categories_nodes":[],"categories_segments":[],"categories_sizes":[],"default_left":[0,0,0,0,0,0,0,0,0,0,0,0,0,0,0,0,0,0,0,0,0,0,0,0,0,0,0,0,0,0,0,0,0,0,0,0,0,0,0,0,0,0,0,0,0,0,0,0,0,0,0,0,0,0,0],"id":30,"left_children":[1,3,5,7,9,11,13,15,17,19,-1,21,23,25,27,-1,29,31,33,35,37,39,41,43,45,47,49,51,53,-1,-1,-1,-1,-1,-1,-1,-1,-1,-1,-1,-1,-1,-1,-1,-1,-1,-1,-1,-1,-1,-1,-1,-1,-1,-1],"loss_changes":[2.1966487E-2,1.1513E-2,1.9704081E-2,1.0239435E-2,6.615741E-3,1.6773771E-2,7.533322E-3,1.6288687E-3,4.1830833E-3,5.225951E-3,0E0,6.528005E-3,4.7447155E-3,5.030548E-3,6.1412496E-3,0E0,6.459776E-4,1.7304365E-3,1.7225447E-3,4.898398E-3,1.8710736E-4,3.5256147E-3,7.546611E-4,1.8179185E-3,5.117273E-4,7.977917E-4,1.2663333E-3,6.1588194E-3,6.795975E-4,0E0,0E0,0E0,0E0,0E0,0E0,0E0,0E0,0E0,0E0,0E0,0E0,0E0,0E0,0E0,0E0,0E0,0E0,0E0,0E0,0E0,0E0,0E0,0E0,0E0,0E0],"parents":[2147483647,0,0,1,1,2,2,3,3,4,4,5,5,6,6,7,7,8,8,9,9,11,11,12,12,13,13,14,14,16,16,17,17,18,18,19,19,20,20,21,21,22,22,23,23,24,24,25,25,26,26,27,27,28,28],"right_children":[2,4,6,8,10,12,14,16,18,20,-1,22,24,26,28,-1,30,32,34,36,38,40,42,44,46,48,50,52,54,-1,-1,-1,-1,-1,-1,-1,-1,-1,-1,-1,-1,-1,-1,-1,-1,-1,-1,-1,-1,-1,-1,-1,-1,-1,-1],"split_conditions":[1.12920284E-1,6.83394E-1,7.362904E-1,3.206936E-2,8E-1,4.532699E-1,1.7886573E-1,1.1404949E-2,4.532699E-1,3.3333334E-1,-4.702573E-3,1.6686356E-1,6.891E-2,8.23458E-1,2.1205E-1,-1.6184038E-3,5.55E-2,9.179708E-3,6.891E-2,9.991927E-1,7.921245E-2,3.198913E-2,8.333333E-1,3.3981693E-1,8.3529815E-2,7.789915E-1,9.355622E-1,4E-1,6.504667E-1,-1.285593E-5,-9.980873E-4,2.3326732E-3,5.6879077E-4,